964 300
code -0.133763 0.0187459 0.114456 0.0076774 0.0509836 0.0296791 -0.0671625 0.0370329 -0.0246544 -0.0343974 0.0585402 0.00525495 0.040381 0.0028613 -0.0310901 -0.00409227 0.0332068 0.0191253 -0.114973 0.0541969 -0.0131455 -0.0209111 -0.0112937 0.0196202 0.0222805 -0.0649055 -0.0184792 -0.00539949 0.0289543 0.0232257 -0.00751215 0.0427802 0.00661715 -0.0509174 0.0181012 -0.042666 -0.00708809 -0.0476666 -0.0290686 0.0569812 -0.0300943 -0.0705942 -0.00588284 0.0385474 0.0594888 -0.0408672 -0.0585079 -0.0348604 -0.00892783 -0.0537124 0.0622434 -0.0267756 -0.0454707 0.0875328 0.024175 -0.0277133 -0.00233117 -0.0484406 -0.0153978 0.0414955 -0.0119638 0.0747115 -0.00954559 -0.0135826 0.00313581 -0.0856196 0.00625682 0.0243361 -0.0565831 0.0441873 -0.0325945 0.0722285 0.0362054 -0.00738889 -0.0273816 -0.0266934 0.010541 0.0975256 -0.0448222 -0.0113134 0.0529948 0.050282 -0.0254556 0.0300913 0.0604709 0.0444532 -0.0882656 0.00916012 0.0556577 -0.0242945 0.0232796 -0.0528984 -0.00685125 -6.12298e-05 -0.00482361 -0.0598575 -0.00991616 0.066914 0.0376864 -0.00861485 0.00278197 -0.0141135 -0.0694509 -0.0993037 0.0348942 0.115914 -0.0599566 0.00211209 0.012091 -0.118044 0.0461841 -0.0346515 0.0532915 -0.0944862 -0.0536407 0.0271491 -0.0660991 -0.00126671 -0.0129615 -0.0703207 0.0556151 0.00501185 -0.0414352 0.073622 0.0344369 -0.0848549 0.00543887 -0.00737569 0.00511941 0.0335421 -0.0318723 0.0368645 0.0386471 0.0178052 -0.0193707 -0.0461646 0.0240971 -0.04171 -0.034713 0.0178724 0.0408324 -0.0712344 -0.0138243 -0.00672982 -0.00289613 0.0297682 0.0222672 0.0120129 0.0490412 -0.0710738 -0.0214877 0.0438324 -0.0616614 0.0433738 -0.0541408 0.0751076 -0.0568058 0.0351293 -0.0278655 -0.0453634 -0.109666 -0.0333391 0.00904722 -0.0995349 -0.0049801 0.00185886 0.0470927 -0.0224964 -0.0108607 0.00486982 -0.00583402 -0.0489051 -0.0662379 -0.0547595 -0.0446219 -0.0691615 -0.00856387 0.0173803 0.0202864 0.0326141 -0.00336946 -0.00983057 -0.0247024 0.022695 0.205823 -0.081081 -0.0452584 0.0407141 -0.0200364 -0.134182 -0.0887382 0.0222516 -0.0107582 -0.000958736 0.036676 -0.0433565 -0.0469229 0.0579137 -0.015043 -0.0379128 -0.0179659 -0.0262991 0.00474133 -0.00323721 -0.0311899 -0.118014 -0.0518482 0.00719063 0.0120034 0.00810464 -0.0215972 0.0108967 -0.0191015 -0.0128638 -0.023817 -0.0434123 0.0280264 0.0715118 -0.0008752 0.0480861 0.0319164 0.0791021 -0.301163 0.0177565 0.0398198 -0.0627486 0.0814126 0.0053369 0.00463401 -0.0360986 -0.00716207 0.0997663 -0.0430269 -0.0178532 0.00578929 0.0711492 -0.0388094 0.0417206 -0.0805054 0.0407415 -0.0188141 0.378092 -0.0033352 0.0162651 0.0279249 0.0662823 0.0473593 -0.0304655 -0.00205177 0.0151086 0.00318657 0.0517804 -0.0470814 0.0537914 0.00585598 0.0551345 -0.0280191 0.0837704 0.0128442 0.282238 -0.0270102 -0.0216678 0.0159289 0.0346228 0.0029198 -0.0210639 0.0301336 -0.00565101 0.0751415 0.0561858 0.100035 -0.11652 0.0223294 -0.0397684 -0.000603876 0.0182935 0.0910855 0.0233118 0.0782305 -0.0155747 -0.0394283 -0.0778242 -0.0595193 -0.0243897 0.0125113 -0.055496 -0.0104226 -0.0750276 -0.0205386 -0.0112077 0.0217796 -0.0290441 0.0618052 0.0063135 0.0243324 0.0100368 0.0779173 0.0016301 0.0145559 -0.071067
jason 0.018416 -0.0210708 -0.0830887 0.0103036 -0.0150379 -0.0213644 0.0550794 0.072479 -0.00100626 -0.0363236 0.0450487 0.00121919 -0.0560892 0.032112 -0.00824721 0.000781628 -0.00740861 -0.05614 0.0203783 0.0107263 0.00615981 0.00595351 0.00419185 -0.0470629 0.0126808 0.0324052 -0.0307652 -0.0297612 0.0570071 -0.121294 0.00929887 0.0314336 -0.00727394 0.0336493 0.0312101 -0.0179557 -0.0272402 -0.0500682 -0.0571326 -0.0433525 -0.00855348 -0.0491775 -0.0190567 -0.00249675 -0.0731582 -0.0338111 0.0108155 0.0592788 -0.035014 0.028938 -0.0552241 0.0210521 0.0601487 0.0152191 -0.0423259 -0.022675 0.0484084 -0.0802146 -0.0326823 0.0608173 0.0103582 -0.0523272 -0.0800125 0.054781 0.0456228 0.053488 0.0286486 0.143407 0.00778553 -0.0939934 -0.0666582 -0.100069 0.0301548 -0.0237273 -0.0508616 0.0300406 -0.032135 0.0532398 0.0676595 0.0654731 -0.00343434 0.0303781 0.0113039 0.0641908 0.0340006 0.0108783 0.0723311 -0.027549 -0.0418545 0.0529119 -0.0308804 -0.0386375 -0.0339828 0.000301342 0.00607267 0.00165139 -0.00547464 -0.00294164 -0.036172 0.0182561 0.0400445 -0.0194098 -0.0543834 0.0244159 0.00552766 -0.00593701 0.0236811 -0.0161289 -0.0181299 0.0643728 0.0480562 0.119246 0.0333215 0.0208772 -0.0505773 -0.0130918 0.104571 -0.00420356 -0.00114121 -0.00664179 -0.0168601 0.0164927 0.0395082 0.0177428 -0.0449986 0.0348079 0.0290134 -0.0564219 -0.0445814 0.0055175 0.00660118 0.080614 0.0142949 -0.00517992 0.103612 -0.0244891 -0.0557449 -0.036123 -0.000677561 -0.0100964 0.0372206 0.0402724 0.114903 0.00125077 0.00798789 -0.0531958 0.0315444 -0.0482115 0.0575588 -0.0269059 0.081573 0.0318356 0.0097542 0.0729583 -0.0278738 0.0190958 -0.0366027 -0.124856 0.0471052 -0.00364769 0.0271333 -0.00385526 -0.112374 0.0527589 -0.033241 0.0354213 -0.0181255 -0.0901062 -0.0552572 0.0536551 0.0494031 0.0206128 0.0367861 -0.012628 -0.0179601 0.0207019 -0.0707072 0.0380174 -0.0128204 -0.00502904 -0.0272759 0.0265767 0.0460723 0.00808702 0.182604 -0.0176635 0.0491799 0.016965 -0.0103957 -0.00631859 -0.0261782 0.0287231 -0.0154467 0.0122635 0.00194131 0.0608161 0.0270837 -0.00809266 -0.083741 -0.0546381 0.0406115 0.0126691 0.0660499 0.0017202 0.0115431 0.0458687 0.0416688 0.0232322 -0.0162361 -0.0397853 -0.0916272 -0.0146665 0.0666246 0.125579 0.0221387 -0.024824 -0.0201836 -0.0293268 0.0363597 0.00716931 0.0583025 0.074376 -0.371981 0.053751 -0.00323481 -0.0158709 -0.0435751 -0.00522208 -0.00435599 -0.0147017 0.0544363 0.0794771 0.00917633 0.0585458 0.0231858 -0.000689406 -0.0470987 -0.10476 -0.0412781 -0.0549095 -0.0149011 0.116924 -0.113714 0.0328209 -0.0265223 -0.0889971 -0.0295611 0.0560283 -0.0124811 0.0426622 -0.0432992 0.0142292 -0.0478252 -0.0123186 0.0124433 0.0887915 -0.0857311 -0.0620708 -0.0701351 0.441169 -0.049472 -0.0819014 0.0302243 -0.0328499 0.036804 0.0178911 0.0396038 0.0143299 -0.0526763 0.0194377 -0.0116971 -0.0059576 -0.0413008 -0.0295252 0.0115661 -0.00906324 -0.0712872 -0.0622014 -0.0420598 -0.00130774 0.0413975 0.107676 0.0243874 -0.00204213 0.00494274 0.0288995 0.004934 -0.00485983 -0.00910625 -0.00895438 -0.0631315 0.034391 -0.0829885 0.0038633 0.0505118 -0.0182318 0.018436 -0.00302498 -0.0426784 0.00679408
forget -0.0132218 -0.0115428 0.0791748 -0.0238238 0.0192506 -0.0171319 0.0517992 -0.00359745 -0.0215316 0.0109138 0.0281749 -0.00164718 -0.0015433 0.00277428 0.0176537 0.0182677 -0.0134956 -0.025209 0.0161239 -0.0247582 -0.0586604 -0.0913704 -0.0179407 0.062818 0.0498945 -0.1089 -0.00391935 -0.0504508 0.027563 0.012184 -0.0233357 0.0645772 0.000996353 -0.00373008 0.0206997 0.0241745 -0.0709223 0.0899764 -0.0282066 0.065846 0.0669018 -0.018464 -0.0143294 0.0191224 0.00357828 0.0495472 0.0172034 0.0888585 -0.00762598 -0.00564628 0.0237691 -0.0133565 0.0837439 -0.020908 -0.0177964 -0.0889571 0.00679495 0.0603125 0.0944617 0.0176829 -0.0878146 0.0168358 -0.023609 0.01095 -0.0142924 0.0320193 0.0791633 0.0882349 0.0055359 -0.0841882 -0.00136293 0.0324616 0.000442899 -0.0423087 -0.0214955 0.0526152 -0.0369631 0.0293859 -0.0114173 0.0218819 0.015706 0.0253141 -0.0582183 -0.0143533 -0.0503367 0.0843006 -1.04393e-05 -0.0536523 0.0913261 0.00398011 0.0631178 0.15079 0.0356656 -0.0481552 -0.0490617 -0.0600842 -0.0846296 -0.0604303 -0.0164183 -0.0411677 -0.0156492 0.0418509 -0.013479 -0.0256091 -0.0628934 0.0747641 -0.00601713 0.051196 0.0435529 -0.0102086 0.0476689 0.0206992 -0.0124433 -0.0219239 0.0248968 0.0293323 0.0105546 0.0454413 0.0245157 -0.0387063 -0.0497025 0.0138481 -0.0753172 0.0200342 -0.050382 -0.0801663 0.0296438 -0.0453115 -0.0865068 0.0333977 0.0190614 -0.105609 -0.053404 0.0429344 0.0327184 0.0629246 0.0419558 0.0245837 0.0169419 -0.114456 -0.0556041 0.0134768 0.0132504 0.0509564 -0.000368113 0.0351499 -0.0396532 0.00802747 -0.0291011 0.0636685 -0.022732 0.0392322 0.0132926 -0.0019376 0.0346618 0.00532831 -0.0124332 -0.0118488 0.0739652 0.013288 -0.0106688 0.0858961 0.000396864 -0.0209246 0.0380988 -0.0274663 0.0326409 0.0357891 -0.0459416 -0.0391663 0.0348174 -0.0250584 -0.00090856 0.00402289 0.0378869 -0.0413192 0.0528212 0.0306922 -0.0184459 0.0255656 -0.072097 -0.109388 0.0534052 0.0343677 0.214519 0.0286846 0.00818474 0.0728436 0.0305291 -0.069966 -0.0642906 -0.0384737 0.060884 -0.0257789 -0.00685313 0.0156144 -0.0105372 0.00275666 0.134426 0.000624988 -0.0196751 -0.00407714 -0.0562436 0.0240287 0.00307873 0.0773633 -0.0296317 -0.0580003 0.0671261 0.0819131 -0.0448467 -0.000554138 0.000253794 -0.073434 0.00121695 -0.0275604 -0.0695895 0.0200455 0.0237446 0.0264201 -0.0454884 -0.0336169 -0.342314 0.00570806 -0.0390203 0.0762686 -0.0159182 -0.0661543 0.00354662 -0.072911 0.0683347 0.00394417 0.0855169 -0.0555921 0.0179602 -0.0462339 -0.00193486 -0.113164 0.0171136 -0.0581711 0.0283509 0.25767 -0.00561035 0.00250628 -0.0486204 -0.012957 -0.0674388 -0.0220609 -0.00951532 -0.00658736 -0.00235568 0.105949 0.0147439 -0.0374695 0.00175602 -0.0520291 -0.000388821 -0.0946793 0.0830212 0.300506 0.0212181 -0.0259486 -0.103279 0.0411287 0.00401228 0.00462238 -0.02325 0.0184067 0.0199721 -0.0502301 0.0101528 -0.054483 -0.052589 0.0334213 -0.0337343 -0.040321 0.115258 -0.0145036 -0.112898 0.0112282 -0.0560023 0.0579538 0.0701078 0.0221929 0.0330242 0.00360361 -0.0311186 -0.0735644 -0.0248197 0.036347 0.0655228 0.0387756 0.0121734 -0.0285225 -0.00881846 -0.0551983 -0.0521071 -0.139914 -0.0523013 0.0226543
ron 0.0037108 0.0104914 -0.0712484 0.00523043 -0.0130552 -0.0394208 -0.0759328 -0.0343219 0.0030991 -0.0425932 -0.0226807 0.0422414 -0.0678473 -0.0235047 0.0195111 0.07637 -0.0834614 -0.11152 0.0408793 -0.0333913 0.0268399 0.0795157 0.0671793 -0.0734978 -0.00739035 -0.000415783 0.0352642 0.028847 0.0413952 -0.102707 0.0290118 0.0425011 -0.022297 -0.0453461 -0.0292751 0.00618588 -0.0709895 -0.050709 -0.0542029 -0.0508667 0.0175558 -0.0610691 -0.051896 0.0299808 -0.0790892 0.0252903 0.0334699 -0.0613256 -0.0216408 0.0537906 0.0076915 -0.0341477 0.0353477 -0.0873372 -0.00274372 0.0214823 0.0609901 -0.035349 -0.0188958 -0.0511939 -0.100756 -0.0215135 -0.0254361 0.0379279 0.0386521 0.0995706 -0.0179283 0.00336592 -0.0220085 -0.0716604 -0.0311546 -0.0515394 -0.0216291 0.0646367 0.0147436 -0.0487691 -0.0252111 -0.042446 -0.0199294 0.0132043 0.0232644 -0.0191847 -0.00638599 -0.0605943 -0.0265447 0.0915519 0.0915973 -0.0783263 -0.0542579 0.00391287 -0.0573037 0.0862874 -0.0868181 -0.0296029 0.00675133 -0.00564439 -0.00750189 -0.0246622 -0.0127498 0.096973 -0.00906539 0.0414747 0.0327223 -0.0411485 0.00768743 0.0441129 -0.0183572 -0.0724895 -0.0373717 -0.0133506 0.0494307 0.0300848 -0.0241384 -0.105925 -0.0291911 0.0446757 -0.0138451 0.0168548 -0.0662352 -0.0143153 -0.0414142 -0.000730528 0.0371986 -0.0817693 -0.0235446 0.0233616 0.0558265 -0.0391618 0.0311416 0.0555144 0.065019 -0.00989107 0.0724528 -0.0207213 0.0123381 -0.0593715 -0.00714763 -0.0228877 -0.115167 -0.0293377 0.0536942 0.0146904 0.0402509 -0.0827114 0.133544 3.69959e-05 0.0349539 -0.0745091 0.0410972 -0.0647201 0.0386011 0.0164773 -0.0279487 -0.00704869 0.00090794 0.0473073 -0.0325198 0.0259585 0.0379433 -0.0110192 0.0302005 -0.0199643 -0.048406 -0.0102874 -0.0425489 -0.063111 0.068867 0.0280343 -0.0502815 0.0825634 0.0100333 -0.0236412 -0.0272609 0.0057104 -0.0416309 0.0568604 -0.0127709 0.0437267 -0.0339965 -0.0149034 -0.0632401 0.0633011 0.00954227 -0.00965102 0.113257 -0.0101067 -0.0959701 0.0360783 -0.0178471 -0.0267023 -0.0344275 -0.0416205 0.0456048 0.0896278 0.082279 0.0665231 0.0120496 -0.0380191 -0.00282808 -0.043677 -0.045893 -0.045043 0.00584451 0.0221155 -0.0104589 0.0853217 -0.0545403 0.0399791 0.0708079 0.0227476 0.025389 0.0186755 0.0354451 0.0361535 0.0145841 0.0662887 0.0321508 -0.00508777 0.0123943 -0.00270813 -0.0219426 0.0277639 -0.396133 -0.0385309 0.0190125 0.0116634 0.0186458 0.0599585 -0.0645246 0.0293562 -0.0631549 -0.0162531 0.0337863 -0.0406143 -0.02527 -0.0078406 -0.0034259 0.034287 -0.0656415 0.0333031 -0.047833 0.121626 0.0202318 0.00974463 -0.0153459 0.0169315 0.0539035 0.0477656 -0.0395524 0.00213329 -0.0151372 -0.0643086 0.037587 0.0477849 -0.0297849 0.0984072 -0.0517312 0.00867091 -0.0196393 0.43715 0.00160049 -0.0260864 -0.0143122 -0.0770445 0.0281061 0.0504848 0.0435774 0.0198123 -0.0278164 -0.0124337 -0.00486229 -0.0184999 -0.0512359 -0.0702784 -0.040275 0.0530881 0.0193484 -0.0354598 0.00549319 0.0448917 -0.0313103 0.0313946 0.00503494 0.0107954 -0.0106732 0.0341091 -0.000658919 0.0627327 -0.0267168 -0.0028079 -0.00151249 0.13151 -0.0749456 0.0378768 -0.046699 -0.0192265 0.0479151 -0.0400094 -0.0269477 -0.0248786
rob 0.0216978 -0.0748971 -0.114013 -0.0362928 -0.0630397 -0.0266207 -0.0258754 -0.0036611 -0.00955116 -0.0488128 0.0388396 -0.0138082 -0.0497477 -0.0607175 -0.0247131 0.0632649 0.00335726 -0.0966405 -0.0448005 -0.0310504 0.0116796 0.0265031 0.0316848 -0.0219708 0.022506 -0.00429375 0.0288984 0.049417 0.0225297 -0.152319 0.0241822 0.0221801 -0.0145656 0.064164 0.0203996 -0.0162471 -0.0799138 -0.0184945 0.0281333 -0.0591082 0.06505 -0.0698353 -0.0248054 0.0466456 -0.0279858 -0.00582477 -0.027269 0.0403914 0.00461658 0.0368638 -0.0323613 -0.0445228 0.0564702 0.0300448 0.00147522 0.01156 -0.0980482 -0.0839607 0.00383668 0.0376804 0.0543834 0.0123787 -0.0491523 0.0229221 0.0439177 0.0860078 0.0479596 0.0713378 -0.0232409 -0.0732387 0.0363268 0.0455804 -0.00696591 0.0318509 -0.0418653 0.00155483 -0.0174448 -0.00367862 0.0554693 0.110062 0.0682355 0.0594515 0.0192532 0.00530868 0.0601738 0.0951857 0.0299923 -0.0544171 -0.0526499 0.0300942 -0.0626097 -0.0109057 -0.0557787 -0.0289392 0.0769772 0.0313091 0.0453723 0.0177831 -0.00748974 0.00973142 -0.00265171 0.0431356 0.0390341 0.0330176 -0.0054828 0.025254 -0.0335992 -0.0201726 -0.0266816 0.013173 0.0944524 -0.0584799 0.0728582 -0.0749059 -0.0195024 0.00392798 0.115971 -0.0221611 0.011656 0.0411681 0.0230123 -0.0701884 0.0648594 -0.0346917 -0.0967139 -0.0249062 0.0176118 -0.0677435 0.099824 -0.0440249 0.0666561 -0.0740176 0.0763012 -0.0281913 0.0349561 0.0322531 0.0627426 -0.029881 -0.0234517 -0.0310165 0.0383199 -0.0236942 0.0332394 -0.0263003 0.103772 -0.0244881 0.0563925 -0.00917589 0.0388293 8.44317e-05 0.0650574 0.0332216 -0.0437893 0.0587267 0.0427267 0.110521 -0.120125 -0.0498774 0.0701957 0.00699907 0.00448584 0.0155033 -0.0568364 0.0186615 0.0162907 -0.000233429 -0.0226813 0.0218103 0.00825591 0.021401 -0.00974792 0.052452 0.0564921 -0.0529409 0.0242737 0.10496 0.0288526 -0.0168269 -0.0532761 -0.00503727 -0.0120786 0.0470126 0.031089 -0.0471388 0.128752 -0.00439556 -0.0104476 -0.0188043 -0.0752957 -0.0241035 0.0654086 -0.0200094 -0.030656 -0.00571463 -0.0178849 -0.0234536 -0.0636563 0.051085 0.00432326 -0.0165125 0.0297729 -0.0164176 -0.116735 -0.027145 -0.0725552 0.0860577 0.0576079 0.030488 -0.103275 -0.074096 -0.0572265 -0.00989487 -0.00451505 0.0576976 -0.0323483 -0.0179635 -0.0527181 0.0182012 0.0176896 0.00526223 0.020114 0.105717 -0.395311 -0.0102335 0.0492681 -0.000310557 -0.00496993 0.00934899 0.0301516 -0.0314746 -0.0133499 -0.013283 0.0845825 -0.00757037 0.0442612 0.00331241 -0.0537544 -0.0081167 -0.0521517 0.000396742 -0.00575085 0.192515 -0.0180034 -0.0122498 -0.0790475 -0.0563893 0.0450731 0.0101507 -0.0293837 0.0239722 -0.0536107 -0.0584335 -0.0010887 -0.027381 -0.000642733 0.0402665 -0.0174442 -0.000457363 0.0202156 0.368974 -0.0380206 -0.0359901 0.047079 -0.0589445 0.0142048 -0.0271733 0.0249489 0.116247 0.0515701 -0.112769 -0.0215814 0.040822 0.00792373 -0.054093 0.0543767 0.0618917 -0.0266819 0.0279127 0.0458809 -0.0064339 -0.0219807 -0.00470758 0.0271014 -0.00719101 0.0264406 0.0170267 0.0348743 0.0105518 0.0471909 0.00871385 0.00211839 0.0172514 -0.00755723 -0.0315957 0.0146575 0.0490066 0.0568791 -0.0119335 -0.0237506 -0.027107
graphics -0.106957 0.0775989 -0.0207273 0.0857309 0.00970561 -0.0290904 -0.061753 0.0588469 0.0338345 -0.0338425 0.0172537 -0.0370326 0.0187222 -0.0222171 -0.0101814 -0.130011 0.0639509 0.010673 -0.0433279 -0.0238227 0.0288259 -0.050069 0.116905 0.0230527 -0.00840782 0.0248634 0.0335418 -0.0650437 0.0611299 -0.0499726 -0.0246463 0.0781747 0.0517321 -0.0123557 0.00411815 -0.0223577 0.068267 -0.0642664 -0.0328163 0.0906351 -0.0643603 0.093818 -0.0133994 -0.0708832 -0.0235227 -0.0593557 0.0467335 -0.0111194 -0.0198485 0.0705256 0.0832277 0.0175449 0.0291902 0.0214034 0.0800428 -0.0591962 0.0300166 0.0353701 0.000583147 0.0644376 0.0230974 0.00555009 -0.0791467 0.0693077 0.0734878 -0.0265766 -0.0343101 -0.0175255 0.0476043 0.0803462 0.0438696 0.0127175 0.0517475 0.0360001 -0.0455421 -0.0362459 0.0477307 -0.0085178 0.0211388 -0.0562103 0.00473426 0.0495811 -0.0245649 -0.00718137 -0.0312491 -0.0557278 -0.0374583 -0.0312658 0.067241 -0.0187542 0.0343872 0.0894819 -0.0398608 0.0185453 0.0726768 -0.0335648 -0.00714425 0.0143119 0.0188028 0.0282892 0.024354 -0.0393663 -0.00768171 0.0117378 0.0553742 -0.0295115 -0.0363921 -0.0338288 0.0651429 0.0195951 0.0220484 -0.0447559 0.060383 -0.0413253 -0.00150619 0.00772551 -0.0864172 -0.00380782 -0.0505876 0.0251979 0.00574489 -0.03994 0.00021179 -0.0107813 -0.032343 0.000762597 -0.0335628 0.0222359 0.0357489 -0.0851745 -0.0556756 -0.00641688 -0.0328286 0.0415957 -0.00640392 0.0097937 -0.0448228 -0.00497173 -0.0824303 0.0313612 0.0158407 0.0759214 -0.0609008 0.0780665 0.0126299 0.0809015 -0.0170926 -0.0668967 0.0349409 0.0391792 -0.059742 -0.0322991 -0.081636 0.0673073 -0.084295 0.104775 0.012251 0.0138425 -0.032278 -0.14467 -0.0211224 0.0636817 -0.0594137 -0.0339119 -0.0924019 -0.00894226 0.00365744 -0.0564991 -0.061094 -0.000265273 0.0104749 -0.0230605 -0.0461427 0.098529 0.0147388 0.0466822 0.00825014 -0.090196 0.0117169 -0.0650752 -0.0222087 -0.0116762 0.0113237 0.0105563 0.187209 -0.016314 0.04455 -0.0122369 0.0552589 0.020102 0.027199 0.0516384 -0.0256493 0.025116 0.0368098 -0.000579624 0.0409346 0.0284291 -0.0403654 0.0145015 0.0683326 0.0194106 0.021909 -0.00870102 -0.0702744 0.014567 0.00552543 0.0772304 0.0906613 0.0161996 0.00279254 -0.0126156 -0.111092 -0.0250298 0.0675683 0.0132191 0.0960025 0.0511578 -0.0723182 -0.0220017 -0.0502343 -0.0627082 -0.195151 0.0262435 0.0187002 -0.0295475 0.0159648 -0.0130232 0.0272753 -0.0228152 0.0418095 -0.022165 -0.0312281 0.0128589 0.0170932 0.0380207 -0.010836 0.0861652 -0.0413013 -0.0867714 0.0388209 0.375882 0.00740272 0.0432478 0.00190976 0.120377 -0.0283244 0.0379919 -0.0416023 -0.0218816 -0.0428164 0.0925622 -0.00160057 -0.070097 0.0211014 -0.0202288 0.0338682 0.0559883 0.0313457 0.214817 0.0171543 0.0295222 -0.0812411 0.0603234 0.0353641 0.0586159 0.012904 -0.0463684 0.00186748 -0.0723973 0.0825311 0.0515347 0.0589793 0.0895447 -0.0844873 -0.00554204 -0.0783372 -0.137808 -0.0145658 -0.0416725 -0.000691119 0.00229786 -0.125242 0.0146874 0.00248549 -0.0552854 -0.0486053 0.077095 0.0435908 -0.00446421 -0.032887 -0.00617527 -0.0536094 0.0816277 -0.0164404 0.0742332 0.0320483 0.070248 -0.0434644 0.0550624
month 0.00462349 -0.0481306 0.0412125 -0.0104916 0.0136579 0.0426444 0.0534281 0.0134506 0.0501431 0.0108287 0.0193238 0.0529391 -0.00224694 0.00140887 -0.036131 0.0264747 0.029925 -0.0370463 0.015684 -0.0158293 -0.0373356 0.0397054 -0.0154545 0.00225569 -0.0213398 -0.00575072 0.00485919 -0.028274 0.0663764 0.103625 0.0397467 -0.0929015 -0.0498242 0.0605916 0.001934 -0.00912516 -0.070956 0.0501003 -0.0146448 0.0197524 0.0772733 0.0440322 0.0055801 -0.0554359 0.00821039 0.0271031 0.0172777 0.0669807 -0.0207032 0.0918145 0.0524194 0.0329981 -0.0519583 0.0281717 0.0475608 -0.00358444 0.0251384 -0.02695 -0.0464864 -0.028324 0.0446811 -0.0498854 -0.0044932 -0.00955377 0.0430435 -0.0174522 0.0365706 -0.00926338 0.086596 0.0248614 0.00392719 0.0661996 -0.0587836 0.0170837 0.0602999 0.0148242 -0.0322907 0.0982564 0.00221221 -0.0770093 -0.0184029 -0.039436 -0.00585859 -0.00396902 0.0724928 0.0405763 0.0236293 -0.0147522 -0.023961 -0.0405821 0.0850191 0.034162 -0.0797078 -0.0784019 -0.0237617 0.0435405 0.029582 0.0677115 -0.141573 -0.0163981 0.0263586 -0.0504732 0.00212362 0.0232807 -0.10184 -0.0499476 -0.063625 -0.0304217 -0.0359914 0.0481927 0.0437711 0.058223 0.0275402 0.0191994 0.0470581 0.0994292 -0.0119207 -0.0190859 -0.0512078 0.0067832 -0.011912 0.0690353 -0.00512469 -0.0446062 0.0221752 -0.037421 0.039159 0.0205023 0.0177905 -0.0107357 0.0201086 0.00379854 -0.0504914 -0.105306 -0.0454058 -0.0641277 -0.0607336 0.0494816 -0.04321 0.0307279 -0.0291417 -0.0154992 0.0274545 0.0456005 -0.0461332 0.046456 -0.00858609 -0.00283687 -0.0118189 0.0489188 -0.00335052 0.00199866 0.0377038 -0.0551581 0.0244823 -0.0061394 -0.0805299 0.0138222 0.0455168 -0.0389389 0.0301838 -0.0434113 -0.0137682 -0.0139954 -0.00281965 -0.0479365 -0.00338388 -0.0651123 -0.0386753 -0.0382234 -0.027055 0.0611968 0.0307476 0.0349455 -0.032173 0.0529105 -0.0380651 0.00668983 0.0375755 0.0109857 0.0167743 0.0229888 -0.0497717 0.0574498 0.252494 0.0632103 0.0352921 0.082697 -0.0645409 0.0261981 0.0243482 -0.0339196 0.00358923 -0.0688261 0.0310299 -0.0294864 -0.0331668 0.0112638 -0.0106686 -0.0833215 -0.0227117 -0.0698241 -0.0312558 -0.0461578 0.0284674 0.0083456 0.0614573 -0.000910944 -0.00376012 -0.0342951 -0.0118818 -0.0397444 0.0421847 -0.0968707 -0.00423398 -0.0224544 -0.00370461 -0.00773858 0.0239941 0.0391646 -0.0354237 -0.00164115 -0.328167 -0.00394811 0.0280678 -0.0894572 -0.0425978 0.0102307 0.00684828 0.021454 -0.031442 0.10337 -0.0478531 0.00881112 0.0667015 -0.0590548 0.0298319 -0.00378336 -0.00461296 -0.031696 0.0144951 0.346105 -0.0400506 -0.0203764 -0.0351984 0.0167466 0.0794052 0.0441841 -0.00523284 0.0443785 -0.0582721 0.0636322 -0.0115046 0.00166699 -0.0175263 -0.0135493 -0.0390458 0.00432859 0.0335357 0.422761 -0.00373073 -0.00862997 -0.0509944 -0.0199989 -0.0222578 -0.0285389 -0.0461615 -0.00687385 -0.0340784 0.00142445 -0.0406114 -0.0448948 -0.0189072 -0.00715097 -0.0529575 0.00876614 -0.019233 -0.035446 -0.0477641 0.0479309 -0.0332536 0.0145889 0.057367 -0.0601131 -0.0101395 -0.0277811 0.0324228 -0.0614003 -0.0293945 -0.0102391 0.000158181 -0.0432916 -0.0378191 -0.0116317 -0.029614 -0.0689129 0.0223371 -0.0552447 0.0359751 -0.00829433
steve -0.0306589 -0.0271779 -0.0640229 -0.0319613 0.00124777 -0.0470625 0.0556113 0.00738772 0.00195677 0.00952831 -0.0130968 -0.0624779 -0.021893 -0.0542003 -0.00523013 -0.00826994 0.00327205 -0.0526558 -0.0639033 -0.043209 0.0211386 0.00210212 0.0168184 -0.0134523 0.0354287 0.0325617 0.0479394 0.0483531 -0.0309626 -0.091681 0.0883569 -0.0351517 -0.0150297 0.0268068 -0.0804627 -0.0551249 0.0312415 -0.0378262 0.00496676 -0.0236488 0.0297451 -0.0548503 -0.0312303 -0.0166889 -0.0455987 0.0231421 0.00195428 0.0249002 -0.0234927 0.0197086 -0.0839697 0.0115577 0.100766 0.0146615 -0.0366911 -0.0237902 0.0231703 -0.121423 0.0043148 0.0305884 -0.00465314 -0.00565011 -0.0613183 0.0595564 0.0306371 0.115357 -0.0482865 0.134456 -0.0518414 -0.0742894 0.0214851 -0.0990061 -0.0295744 0.00951615 -0.011376 0.0199273 0.0109434 -0.00379461 -0.0914776 0.0289385 -0.0215575 0.0856804 0.015994 -0.00247618 0.00319617 0.033726 0.0180122 -0.112421 0.00927109 -0.00569524 -0.0867794 -0.0396298 -0.0597463 0.0282535 0.0252386 0.00811255 -0.0453406 -0.0322846 -0.00635387 -0.0434269 0.044129 0.0463171 0.0197682 0.0280642 0.00799467 0.0279145 -0.0515173 0.0532435 0.0249488 -0.023202 0.057901 0.00350611 0.00621191 0.0225822 -0.0648103 -0.0273414 -0.0316586 -0.0991271 0.0129299 0.00436557 -0.0863826 -0.018698 0.0254127 -0.0432048 -0.0555428 0.0310038 0.0308937 -0.0592651 0.0146484 -0.0251916 0.0105271 -0.0378681 0.0753753 0.00907563 0.0789648 -0.019595 -0.0363839 -0.0327751 -0.108187 -0.0311988 0.0260271 -0.0170666 0.0686937 -0.00989282 0.0849011 -0.013058 -0.03579 -0.0411959 0.0205012 -0.0217381 -0.0240518 0.0694124 -0.0207687 0.0130703 -0.0264559 0.0716114 -0.0412958 0.012481 0.0692382 0.0333739 0.0154507 -0.0800459 0.0378833 -0.0471704 0.034293 0.0121943 -0.0139151 -0.0657774 0.0166192 -0.0235471 -0.0501089 -0.0155376 0.0524225 0.0599122 0.0168986 0.0213507 0.0298207 -0.0821044 -0.0460608 -0.0752785 -0.00863916 0.0641153 0.0662579 0.0333303 0.194666 0.0191105 0.0379177 0.0374996 -0.0517784 -0.000597523 0.00455515 0.0287363 0.0561996 0.0182771 0.00764756 -0.0100592 -0.0684299 0.000208028 -0.0257208 0.018 0.00350585 0.00909761 0.0415932 0.00870183 0.0260125 0.00333551 0.0308994 -0.0169859 0.00428367 -0.0466357 -0.0321327 -0.0493537 -0.0480121 0.0534627 -0.0166883 -0.0595647 -0.00446239 -0.0456822 -0.0133708 0.0543136 0.00637284 -5.45582e-05 -0.445724 0.0199842 -0.0207834 -0.0423701 -0.0253796 0.00456483 -0.0214101 -0.0154528 0.00164551 -0.0139923 0.0331999 0.0133242 0.0638206 -0.0307478 0.0131311 -0.053001 0.0198135 -0.0514048 -0.0362588 0.146297 0.0316197 0.0140955 0.00905378 0.000724302 -0.0117188 0.0369596 0.00625483 0.0337141 0.0128624 -0.0598079 0.0608166 -0.0451267 0.0211294 0.0540899 -0.0416355 -0.093984 0.0144484 0.414549 0.0397823 -0.0335333 -0.0143424 -0.00780299 0.116968 0.0939085 0.0347342 0.0840037 -0.0407436 -0.0803097 0.00782367 0.0377659 -0.0367994 0.0281757 0.0319707 0.0173534 -0.0300678 -0.020453 0.00755061 0.0335126 -0.00519938 0.0512601 0.064821 -0.021948 0.104881 0.00101201 -0.0386505 0.0251645 -0.0558462 0.0322502 0.00840235 0.0432149 -0.0681628 0.00603568 -0.0314984 0.0377686 -0.0422068 0.0128179 0.0595185 0.022031
manager 0.0573726 -0.0501826 -0.04418 -0.041183 0.0687479 -0.0341333 -0.0339788 -0.00078138 0.0600706 -0.000345527 0.0214555 -0.00180194 0.0385844 0.0047547 0.0393555 -0.0146966 0.0345949 -0.017572 -0.0425368 -0.061853 0.0442236 -0.0173625 0.0605293 -0.00933688 -0.0209141 0.0192315 -0.00510836 0.0678108 -0.0493205 -0.0724962 -0.00747234 -0.0219403 -0.0274765 -0.0397895 -0.0240679 -0.041951 -0.0185279 0.0126259 0.0947291 0.00962548 0.0431352 0.0120671 0.0870846 -0.0076626 -0.0469491 -0.0232704 -0.0648336 0.0239381 0.0823334 0.0372053 -0.00653015 -0.00119813 -0.0143394 0.0183735 0.0211387 0.0803717 0.0309903 -0.0308158 -0.0368703 -0.0352453 0.0571326 -0.0191277 -0.103479 0.112485 0.056832 0.0940752 0.0206693 0.131911 0.0392129 -0.0658757 -0.0265238 0.0404267 -0.0604764 -0.0371608 0.0169435 -0.009051 0.0220698 -0.0381168 0.00118359 -0.0780949 0.0363926 0.054171 0.0758598 0.0390785 -0.0114564 -0.0019471 0.0601146 -0.048935 0.0737201 -0.00775736 -0.0478063 0.0842409 -0.0334859 0.0717471 0.0553167 -0.0446756 0.0560425 -0.00263459 -0.0105371 0.0797859 0.0271823 0.00943928 0.0414426 -0.0753719 0.0259656 0.0145839 0.0246662 0.049718 -0.0359287 0.00031127 0.0899468 -0.0595756 0.0883866 0.0129379 0.0348661 0.00717549 -0.0122299 -0.0146084 0.0115975 -0.00878803 -0.0504789 0.000563762 -0.03686 -0.035496 -0.0447459 -0.01951 -0.0712345 0.0338571 0.0469656 -0.00125309 0.00845384 -0.0277495 -0.00577539 -0.0291942 -0.0420887 -0.0441558 -0.00704105 -0.00324813 -0.0151059 -0.0349505 0.0387858 -0.0127292 -0.0390563 -0.024949 0.0525811 -0.0984258 0.119678 -0.000389643 -0.0218971 0.0641151 -0.0703081 -0.10135 -0.0266634 0.000429198 -0.0470191 0.0709909 -0.0778909 -0.102231 0.0694076 0.0148704 -0.0221345 -0.02298 -0.0339674 -0.127791 -0.0486762 -0.0317283 0.0374386 -0.0289256 -0.0352533 -0.0152455 -0.0610796 -0.00911261 6.0381e-06 -0.0472696 -0.0144553 -0.0131063 -0.039228 0.0190847 0.0432834 -0.00100183 -0.0241997 0.0821281 0.0182808 0.0649234 0.130671 0.0179851 0.0191322 -0.000523097 0.0255631 0.0326369 -0.00939652 0.0481046 -0.0485109 -0.100094 -0.0236906 -0.00607729 -0.0497636 -0.0832704 0.0294986 0.0314052 -0.0197028 -0.10736 -0.0082844 0.0132821 0.0723199 0.0563735 -0.00582542 -0.0636516 -0.0365873 -0.00364012 -0.00996682 0.00511428 0.0137099 -0.00562973 0.0245104 -0.00330605 0.00841527 -0.0455115 0.0386712 0.0467768 -0.0614069 -0.0403241 -0.404812 -0.0260708 0.0349795 0.0100138 0.0201695 0.024502 0.0237512 -0.00787689 0.00508039 -0.0283685 -0.0563985 -0.00745792 0.0378259 0.00396395 -0.0720867 0.0171958 -0.0773809 0.0324496 -0.0295899 0.290101 -0.0315517 0.00954255 0.0417365 0.00694407 0.0495509 0.0431144 -0.00802452 0.0493509 -0.0140841 -0.00223213 0.0253133 0.011668 -0.0199102 0.00882845 -0.101593 -0.0780637 -0.008556 0.342645 -0.0192924 -0.0188269 -0.098899 -0.0262831 0.0806559 -0.0238895 -0.0338808 0.0552726 0.0258012 0.0495413 -0.0104154 0.0201932 -0.0290254 0.0115527 0.0349191 0.0390433 -0.0878177 -0.0810874 -0.0304685 0.0405214 0.0111046 0.0128379 -0.000786186 0.000261117 0.021586 -0.0313356 -0.0130914 -0.000755502 -0.0623792 0.0597193 0.0168618 -0.0330196 0.00845273 0.0180617 0.000786679 0.00722601 0.0936389 0.0388763 0.109876 -0.00635233
follow -0.00898344 0.0574282 0.0297966 0.00219337 0.0279044 -0.015542 0.0645566 -0.0455082 0.0398415 -0.017415 0.0675177 -0.0213694 -0.0246985 -0.0402714 0.0137493 -0.0190034 -0.0402727 -0.0541997 0.0704071 0.0517773 -0.0400766 -0.0323497 -0.0327336 -0.00706475 -0.0226799 -0.0672243 0.0372919 -0.052624 0.0477991 0.0742848 0.010626 0.00117907 -0.0179849 -0.061797 0.00755564 -0.0208882 -0.0644092 -0.0148375 0.00644473 -0.0152903 0.0431274 -0.021465 -0.0359805 -0.054195 0.025195 0.0462114 0.0218468 0.0853359 0.00691248 0.0175124 0.0061183 -0.0273654 0.00244101 0.0452205 0.0273652 -0.10009 -0.0322172 0.0421528 0.02319 -0.0146252 -0.00575733 0.0323326 -0.0248339 -0.0930631 -0.0277831 -0.00289359 0.00673332 0.0391883 0.00877005 -0.0294203 0.0326437 0.0456548 -0.0119633 0.0269034 -0.0399022 0.0134099 -0.0412263 0.0544219 0.00396933 0.0239769 0.00128601 -0.0710221 -0.0589157 0.0225856 -0.0471859 0.00946949 -0.0407231 -0.00957345 0.0130588 -0.0330558 0.0244205 0.0738511 0.0639609 -0.0745403 0.0376355 -0.0193945 -0.052382 0.00415693 -0.0334331 -0.0288606 -0.00111623 0.0373964 -0.0501305 0.00055358 -0.0206893 0.0302284 -0.0400682 0.0126181 0.00865327 -0.0604509 -0.0255904 0.0166074 -0.028151 0.0108857 0.00839203 0.0568444 -0.0235125 -0.0106171 0.0409898 -0.0327188 -0.0154283 -0.0584652 -0.0711917 -0.0462978 -0.00419633 -0.00207675 0.00269927 -0.0361595 -0.0483234 -0.0177085 0.0148233 -0.0878782 -0.0437836 0.0267652 -0.00446131 -0.0116116 0.0417106 -0.0737422 0.0406651 0.0415623 -0.0442895 0.0478921 -0.0279105 0.0326109 0.0147466 -0.033635 -0.0554302 -0.0180827 -0.0136216 0.0028259 0.0633541 0.0395839 0.0910535 -0.014102 -0.0408547 0.073028 -0.0543184 -0.0758969 -0.0189898 0.044371 -0.039832 0.091414 0.0417894 -0.0308798 -0.0260939 -0.00375906 -0.024035 -0.00987987 0.00426746 -0.000102086 -0.018798 0.00936224 0.0362873 0.0426252 -0.015037 0.0773125 -0.0181054 0.00983734 -0.0272768 0.0610305 0.0291224 -0.0780351 -0.0238823 -0.0402821 0.35341 0.00253699 -0.0350258 -0.0105315 0.0823018 -0.0619162 -0.0817388 -0.0365596 -0.00380174 0.0307041 -0.0258107 0.0408144 -0.0271945 -0.00942071 0.00548405 0.0460266 0.022137 -0.00272553 -0.0178626 0.0320379 -0.0302609 0.017179 0.00979373 0.00981546 0.0123789 -0.0206755 -0.0606012 0.0376536 -0.0709893 -0.00842001 0.00425073 0.0161898 0.0244602 0.0515541 -0.0007182 -0.0104524 0.0267186 0.00769228 -0.36629 0.0789789 0.0185333 -0.000239348 -0.0151358 -0.0795051 -0.0223332 0.0169731 -0.0349617 0.000600168 0.042306 -0.0527874 0.0541036 -0.0134968 0.084992 0.0501671 0.0757342 0.0332428 -0.00312997 0.395931 -0.0471007 0.00320908 0.0196953 -0.0520939 -0.0285731 -0.0226479 0.0197638 -0.0289766 0.00849568 -0.00225497 -0.00383598 0.0250371 0.0361323 0.0014042 0.00502521 0.0600535 0.0610383 0.378076 0.00703927 0.0179101 -0.0576505 0.00601434 0.0125493 -0.033689 -0.0374035 -0.00166199 -0.0499012 -0.0519674 -0.02804 0.00316265 0.0577276 0.0103059 0.0408153 0.0307081 0.0222969 0.00996851 -0.00654619 0.0109861 0.0314965 0.0168682 -0.0141006 -0.0430081 -0.00334243 -0.000216836 0.00341575 -0.0140626 -0.0143018 0.0695946 0.0704962 0.0578692 -0.00636547 -0.0102005 -0.030131 0.00839891 -0.00592179 -0.05118 0.0323009 -0.0549719
alt -0.0396156 0.022449 0.0764577 -0.0298833 0.020736 -0.00702415 0.015042 0.0150526 0.0307224 0.0582921 0.0944848 0.107293 -0.054709 0.0863322 0.00216119 -0.0351859 0.102934 -0.0525544 -0.0023316 0.0622171 -0.019255 0.0388251 -0.000322718 0.00175837 0.029022 0.000104979 -0.0651669 0.0900927 0.0372316 -0.0634391 -0.0546178 -0.0461734 0.0377989 -0.0353602 -0.0281896 0.00970628 -0.0621719 0.0881045 0.0266282 0.00286096 -0.0379381 -0.00553888 0.00686011 -0.0672832 0.0689589 -0.0501234 0.00557906 -0.0354945 -0.0450786 0.00709686 0.0229099 0.00197445 -0.015152 -0.045412 0.0293912 0.0480098 -0.0223471 -0.0215428 -0.0196214 -0.0321977 0.0344309 0.0709463 -0.0128327 0.0458076 -0.0308326 -0.00728079 -0.0402096 -0.027314 0.00122722 0.0422128 -0.0450568 -0.000385603 0.0359458 -0.101864 0.0132651 -0.0240583 -0.0676968 -0.120187 -0.0424834 0.0411132 0.0359857 0.0861873 -0.0839887 0.00962299 -0.0157133 -0.0193179 -0.075578 0.0851111 0.0256442 0.0238571 -0.0213146 0.0497163 0.0309678 -0.0610574 0.0328082 -0.0590248 -0.000158553 -0.0234506 0.0339854 -0.0378238 -0.029163 0.00451499 -0.112001 0.0546698 -0.0297501 -0.00241324 -0.0166714 0.0944276 0.0513626 0.0293248 -0.0673669 0.00902832 0.116051 0.0689185 -0.0689813 -0.00839895 0.0129558 -0.0734795 -0.0141862 0.0510179 0.00270177 -0.0321436 0.0506144 -0.0714004 -0.0319585 0.00573583 0.0624888 0.02511 0.0558311 -0.0368453 -0.00291313 -0.104973 -0.0299349 -0.0204993 0.0353879 -0.0636513 0.0378764 0.0797303 0.0126361 -0.0221169 0.0135041 -0.0729558 0.0087329 -0.0149216 0.0438788 -0.0178514 0.0221025 0.0459157 -0.0517651 -0.0498923 0.0232243 -0.0327927 0.0354912 0.0848361 -0.0193323 0.0511873 -0.0165807 -0.0237244 -0.0606704 -0.0215449 0.0819379 0.0232792 -0.0468966 -0.0171489 -0.0828682 0.0036212 0.0863162 0.110989 -0.0386545 0.00176487 0.114174 -0.0458536 -0.0304689 0.0757225 0.0286849 -0.0346007 -0.0338448 -0.0330853 -0.0284834 -0.00642451 0.0191059 -0.100348 0.0415129 0.0420628 0.226411 -0.0082876 0.018187 -0.0804249 0.0348913 0.0460779 -0.100765 -0.0102646 -0.0770094 0.048819 0.0563868 0.0497327 -0.0508085 -0.00799996 0.015144 -0.0424621 0.0546031 0.00844602 -0.00321493 0.0119238 0.0532292 0.0308711 -0.0627056 -0.0585822 0.0126507 0.0316267 0.0919848 -0.0498048 0.0724308 -0.0175104 0.0361427 -0.0018562 -0.00470454 0.00186462 0.108095 -0.0557256 0.0204592 0.0304351 -0.273422 0.0551244 0.0302484 -0.0291681 -0.0242276 0.0257969 -0.00200825 -0.00674608 0.0152666 0.00629606 -0.075206 -0.043754 0.0478277 -0.00819805 -0.0104349 -0.0623269 -0.0179949 -0.043954 -0.0153278 0.355968 -0.000812407 -0.0193734 -0.00369301 0.0161641 0.0626408 0.000809473 0.0453371 0.0964792 0.0050756 -0.010012 -0.000380884 0.044935 -0.0690383 0.0147479 0.0164592 0.0439294 -0.0668508 0.310829 -0.00706497 0.0232756 -0.0173125 -0.0110358 -0.0790673 -0.0259486 0.0532431 -0.0374303 -0.0169945 0.0346493 0.0251738 -0.0271836 0.0320933 0.0300327 -0.0557898 0.056844 0.0644399 0.0465314 -0.00352655 0.00405948 -0.0629554 -0.026004 0.0147124 -0.0225456 -0.0237736 -0.0459795 0.0506203 -0.00162443 0.0585542 -0.0304369 0.0272381 -0.0606953 -0.0478713 -0.00383728 -0.0300496 0.0509579 -0.010507 -0.00529423 -0.0664507 0.00502764
disk -0.107832 -0.0478863 0.0562097 0.0114965 0.00441367 0.010556 -0.107651 0.00238859 0.0162226 -0.00656165 -0.0565792 -0.0789977 -0.00431102 0.0208423 -0.0033381 -0.0641515 0.0846565 -0.000984317 -0.0334554 -0.00690844 0.0873528 -0.0266234 -0.0370591 -0.00271298 -0.0598988 -0.0337772 0.00389702 0.10997 0.0211724 0.0258427 -0.0592122 0.0356711 -0.0552262 0.0375101 -0.0629148 -0.0414771 0.0448962 -0.00812185 0.0797713 -0.0448886 -0.0279127 0.0506661 -0.0124893 0.0803018 0.0295518 -0.0508743 0.00377653 -0.00428596 0.00916198 0.0978819 0.0298676 0.0522766 0.014405 -0.0478073 -0.0435333 -0.0229582 0.0699238 0.0282178 0.0695524 -0.080482 0.0352163 0.0113292 -0.0135477 0.0501219 0.068877 -0.0571363 -0.0856927 -0.00562935 -0.00980431 0.116435 -0.0373216 -0.0533773 0.0275173 0.0269325 0.00202723 0.0812577 -0.0324464 0.0135391 -0.0464715 0.0481588 0.0174775 0.0248862 0.00475034 0.0705471 -0.0451264 0.0751206 0.00768709 -0.127811 0.0727612 -0.0583743 0.123395 0.021538 0.100654 0.116203 0.00405029 -0.0456307 -0.0437483 0.0319353 -0.0582495 -0.0297925 0.0114937 -0.0799781 0.0226387 0.037574 0.0884221 0.0238931 0.106819 -0.00187535 0.0148451 0.137194 -0.0497469 -0.019983 0.0275213 0.00660557 0.0516563 0.109484 -0.0848176 0.0557605 0.11397 0.0318038 0.00398574 0.0314556 -0.0250436 -0.00992405 0.00423445 0.000442101 -0.0262885 -0.000960016 -0.0117068 0.0335946 -0.000888379 0.00847839 -0.0697525 -0.0293788 0.0220367 0.0930799 -0.068825 -0.00419344 -0.0716838 -0.00764317 -0.0341315 -0.0522607 -0.0794779 0.02415 -0.00822943 0.00865774 0.103359 0.00984836 -0.0410326 -0.0300511 0.0569676 0.0448312 -0.0709923 0.0360542 0.0546888 0.00750901 0.00131985 0.0285103 -0.00190636 0.0295637 -0.0160016 0.0574233 -0.00222645 0.046475 -0.0830173 -0.0286724 0.045151 -0.0416265 0.0729708 0.0151132 -0.0375748 -0.0218451 -0.0478795 0.0266097 -0.0461387 0.0850093 0.0211668 -0.0182611 -0.0250779 -0.0298067 0.0373816 -0.0312258 -0.0137613 0.0502836 0.222577 0.0520453 -0.0077929 -0.0176034 -0.0796723 -0.0346627 -0.018811 0.031641 0.0802621 -0.098786 0.0639025 -0.00728688 0.0415814 0.0357998 0.00521965 0.00583654 0.06226 -0.0251644 -0.0226797 0.0293809 0.0548503 -0.0223613 -0.0322853 0.0239305 0.0370503 0.133811 -0.0161637 0.0493139 -0.0250334 0.0646881 0.0707486 0.0297319 0.0788628 0.0149938 -0.0449315 -0.0925274 -0.0374335 -0.0353715 -0.204654 0.0387619 0.0914791 0.0224294 0.0464833 -0.0196272 0.021383 -0.0985279 -0.0397857 -0.0419617 -0.0257132 -0.0523652 -0.0353663 -0.0261772 -0.00396473 0.0912077 -0.04199 0.0122229 0.0724987 0.330948 -0.0247613 0.0568956 0.146685 0.0813494 0.0751369 -0.00610246 0.0147644 0.0221771 -0.0186229 0.122714 -0.0370727 0.0594651 0.00571377 -0.0192866 0.0676235 -0.017226 0.0192155 0.172741 0.0216245 0.0148029 -0.0597005 0.041851 0.0445113 0.0138697 -0.0296967 0.0288409 -0.0457525 -0.0774084 0.0651581 0.0420682 0.060059 -0.0562292 -0.00975837 0.00324735 -0.00522155 -0.0362996 -0.041375 -0.0271854 -0.0189601 -0.00732194 -0.0301111 0.0156012 0.000445139 -0.017805 0.0426972 -0.00621346 -0.038249 -0.0390199 -0.0214749 -0.0645455 0.0747254 0.0200666 -0.068238 0.0358194 -0.0158265 0.030883 0.0444231 0.0487359
hate 0.0613879 -0.0393878 0.0740995 0.0616409 0.0651955 0.051912 -0.0309071 0.0185435 -0.0698871 -0.0701914 0.0551577 0.0279216 0.00124648 0.00614947 -0.0525608 -0.028642 -0.0229863 -0.0455164 0.00136427 -0.071416 -0.0810733 -0.0862705 0.0712725 0.0100939 0.0650612 -0.00451281 0.0480327 -0.06195 0.0381319 0.0253858 -0.0112101 0.152964 -0.129014 0.0352541 0.0474133 -0.0239624 -0.0155945 0.0316373 -0.00825377 -0.0235999 -0.000538858 -0.065916 -0.0702876 -0.0492586 -0.0788313 0.00296821 0.0493551 0.0446901 -0.000824647 0.0532861 0.0253998 0.021908 0.0512711 -0.0106279 0.024435 -0.0202328 0.0117159 -0.0581262 0.117785 -0.0582504 0.0217844 0.0504007 0.0291186 -0.0148645 -0.00615114 -0.0162324 -0.00377444 0.0146373 -0.00759393 -0.013994 -0.0497953 0.105735 -0.0299355 -0.0146406 -0.108494 0.00643404 -0.0173474 0.0902611 -0.0665833 0.00444813 0.0182658 0.0138178 -0.0559242 -0.0266649 0.0397821 0.0516616 -0.0269511 0.0510511 0.0616794 3.88051e-05 -0.0768507 0.0386538 0.00961317 -0.0161213 -0.00250179 -0.0220351 -0.000699557 0.0560528 -0.0255405 -0.096154 0.0422233 0.0287455 0.0242298 -0.0205593 -0.0295666 -0.0357911 0.024856 -0.0530108 -0.0276699 -0.0784198 -0.0066687 -0.010266 0.0123776 -0.01261 -0.0139432 -0.0103909 0.0119162 0.000131481 -0.0138807 -0.000411486 -0.00775143 -0.0133249 0.0250013 0.0328483 0.0287098 -0.0403018 0.0606136 -0.017406 -0.0163199 -0.0149168 0.048876 -0.11085 0.0360837 0.011659 0.0602695 0.0324543 0.0728672 0.000412704 -0.00603731 -0.0377114 -0.0661979 0.0327797 0.00297551 -0.00565961 -0.016867 0.0213912 -0.0899766 -0.0242085 -0.0306343 -0.0591522 0.0769899 0.0428752 -0.0175437 -0.049881 -0.075257 -0.0237956 -0.0884724 0.0610706 0.0436124 -0.024038 -0.046175 0.0352863 0.0376376 0.0229849 -0.00410208 -0.00934762 0.0377523 -0.0536328 0.0226958 0.0235606 0.0113072 0.0229443 0.0801989 -0.0159745 0.0422648 -0.00658165 0.0382443 -0.0156097 -0.0197526 -0.0370189 -0.0725281 -0.0261992 -0.0154558 0.0194435 0.202529 -0.00140459 0.0128214 0.0290915 -0.0443672 -0.0844355 -0.0298204 -0.0787062 0.0150882 -0.0456491 -0.0976219 0.0398675 -0.0335685 -0.0113425 0.0138621 0.0953709 0.0163435 -0.0516109 0.0103946 -0.0517187 -0.0134757 -0.0104532 -0.0650897 0.0357272 0.0048517 0.0599425 -0.0886453 -0.041059 -0.0310601 -0.0781267 -0.0445073 -0.0773838 0.0403789 -0.00254653 -0.0851647 -0.054525 -0.0882198 -0.0497017 -0.372831 -0.00150549 -0.0633697 0.0429837 0.0701946 -0.0945446 -0.0179946 0.0336407 0.0477557 -0.00796357 0.0360974 -0.0281224 -0.0110916 0.0416295 0.0287875 -0.0998328 0.0384329 -0.0359203 0.0816388 0.252142 -0.0181453 0.020271 -0.082965 -0.0059384 -0.000992346 -0.0162291 -0.0587867 -0.0248039 -0.0535375 0.0150591 0.00366777 0.00762361 -0.00654543 -0.061069 -0.00267238 -0.0896352 -0.0224732 0.246282 0.00431437 -0.0785726 0.0234908 0.00809627 -0.0201969 0.000677644 -0.0197174 -0.0596718 0.0319389 -0.0538931 0.0514559 0.000297201 0.0230064 0.0352776 -0.120919 -0.0923351 0.122772 0.0330376 -0.07784 -0.0929046 0.00514069 -0.0198347 0.0206629 0.0408528 -0.0690075 0.026287 -0.0789069 0.000129198 0.0342249 0.0562921 -0.032613 0.0411231 -0.00417923 0.029965 -0.0410042 -0.0377901 -0.120254 -0.0674687 -0.0892817 0.00772359
worked 0.0425659 0.00536436 -0.033395 -0.0402043 0.0345647 -0.00895618 0.00796075 -0.0191103 0.0185732 -0.00614035 -0.0372258 0.0285437 -0.0234653 -0.0592485 -0.00819384 -0.00591373 0.00462863 0.05393 -0.0093731 -0.012281 0.0558535 0.0135464 0.0343016 -0.0056653 -0.0378997 -0.0341072 0.0454289 -0.0183396 0.0475677 -0.101888 -0.00187656 0.0174849 0.00916703 0.0252645 0.0158396 0.0150674 0.0260036 0.0169164 0.0135391 -0.0521934 0.0854445 -0.0351356 -0.000887749 -0.0652542 -0.00166698 -0.00403999 -0.010597 0.0111247 0.0998755 0.0191782 0.0215104 0.00509523 -0.0239815 0.00127539 0.0454178 0.0038967 0.0328728 0.00338279 0.0106861 0.0533028 -0.000647197 -0.0366173 -0.0617932 0.0131801 -0.0139937 -0.0176603 -0.0257677 0.0323943 0.020167 0.00799017 -0.0168302 -0.00168696 -0.038104 -0.0185874 0.00476727 -0.00354945 0.0389168 0.00252165 0.0754783 -0.0423143 0.0398329 0.0215692 -0.05511 0.0286936 -0.00208882 0.019325 0.0748756 0.0183015 0.00298994 0.0542735 -0.096859 -0.0191143 -0.0317859 -0.0201412 -0.0283078 0.00173693 0.0479618 -0.0855584 0.0338761 0.0512153 0.00186812 0.0229884 0.086256 -0.0589373 0.0145959 0.00550258 0.0292891 0.0466317 -0.0104762 0.0604525 0.0448863 0.00681584 0.0236047 -0.00868269 0.0469977 -0.0249368 0.0318531 0.00511452 -0.0490102 0.0363555 0.0268433 0.0286588 -0.00833277 -0.0170808 -0.0514208 -0.0204778 -0.0503758 -0.0253215 0.00427646 -0.0264865 -0.0195653 -0.0444898 -0.00230165 0.0410955 -0.0166933 -0.0169874 0.0649759 -0.0360776 -0.0466993 0.00393625 -0.00312859 0.0242797 -0.0809697 -0.0238987 0.011541 0.0024265 -0.0105281 -0.0367405 -0.0251538 0.043922 -0.0531027 -0.042373 -0.0836946 -0.00207066 0.0537625 0.0273202 -0.0290586 0.0334517 -0.00638583 0.00194075 0.00786799 -0.0311463 0.0115906 -0.0331579 0.0708778 -0.0116553 -0.047118 -0.0953148 -0.0195115 0.0164437 -0.0141564 0.012135 -0.0171366 0.0134991 0.0126789 0.0102161 -0.0635568 0.00207264 -0.0152446 -0.00388262 0.0242624 0.00631207 -0.00498193 0.00397538 0.259887 0.000130763 0.0838512 0.00230573 -0.00139532 -0.015265 0.0269768 0.0126751 0.0396437 -0.00356873 0.00283483 0.00772132 -0.00787376 -0.0584836 0.0545401 0.0826264 -0.0447954 -0.01431 0.0221419 -0.0467663 0.063821 -0.002565 -0.0125545 0.00127328 0.000648042 -0.00771795 -0.0515651 0.0218727 -0.0110715 0.00457852 0.0286307 0.0567269 0.0291025 -0.0176382 0.154304 0.0119862 0.0288015 0.0823397 -0.452964 -0.0492913 0.0616683 -0.00886961 -0.032396 -0.0122589 -0.0291741 0.0346217 0.0507726 0.0301277 0.0152529 -0.0189586 0.031471 0.0709853 -0.0379417 0.0497404 0.00559858 -0.031486 -0.0533515 0.391711 0.0285938 -0.0212719 0.00411233 -1.71723e-05 0.0316364 0.00425084 -0.00584927 -0.0291029 -0.0317631 -0.0271675 0.108987 -0.0240036 0.0646751 -0.00812501 0.0162426 0.0274075 0.0464044 0.347669 0.000976989 -0.0491635 -0.0252795 -0.0646244 0.0982356 0.0668377 0.0185967 0.0328716 -0.0179188 -0.0702181 -0.0129216 -0.0436101 0.0052816 0.0715519 0.0429036 0.0237654 -0.022731 -0.00934326 -0.105318 -0.052872 0.0434146 -0.00872295 -0.0451138 -0.00958986 0.0131934 0.0197301 0.0731167 0.0139979 -0.10909 0.0339367 -0.00614204 -0.065971 0.0268561 -0.00288367 -0.0743108 0.026413 0.0323293 -0.00624057 0.0192631 0.0404214
rom -0.117674 -0.067572 -0.0309326 0.0150386 -0.0264321 0.0138399 0.0243276 0.00210381 0.0265452 -0.0347802 -0.0193305 -0.0722611 0.0413983 0.100183 0.0594277 -0.0256598 -0.0234815 0.024333 -0.0720316 0.0818276 0.00588689 0.0071662 0.0617747 -0.000914974 0.0245255 0.00447442 0.0128648 0.0520055 -0.0533044 -0.00568284 -0.0227711 0.0195357 0.0398408 -0.0405805 0.00534015 0.0401827 0.0487685 -0.0189109 0.0364675 0.0806914 -0.134748 -0.0454435 -0.042616 0.0363454 -0.0840543 -0.0112837 0.0471259 -0.0548752 -0.0116499 0.0396286 0.0649104 0.0281649 0.00870636 -0.00388791 0.0585845 0.0766015 -0.046596 -0.0300302 -0.0124712 0.0717889 0.0328803 -0.0461374 -0.027219 0.0326023 0.0802732 -0.0188184 -0.0133977 0.00322272 0.0275706 0.103328 -0.0150023 0.0154503 0.112539 -0.0134959 -0.0132106 0.0408465 -0.0537067 0.0212573 -0.0375529 0.00141563 -0.0335654 0.0311978 -0.0364484 -0.021032 -0.0115689 0.00684127 -0.0250238 -0.176325 0.0633704 -0.05605 0.0308041 0.0528107 0.0113513 0.138891 -0.041293 -0.0102475 -0.0065679 0.00608232 -0.0262949 -0.0286747 0.0200495 -0.0495711 0.0999473 0.0150213 0.120573 -0.0301493 -0.107067 0.00538867 0.00633745 0.0323595 -0.0251276 0.0137278 0.038646 0.0104953 -0.0274666 0.0315216 0.0101864 -0.0689394 0.039271 -0.033443 -0.00842375 0.112565 -0.00980107 0.0455976 -0.0974667 -0.0146058 -0.104247 -0.0843768 -0.0512747 -0.0130161 -0.0166605 -0.0460588 -0.0728931 -0.0862904 -0.0916947 0.0749627 -0.00834495 0.0181228 -0.0855474 -0.0532063 0.00935952 0.0712855 -0.00151851 -0.045179 0.0712716 -0.00520893 0.0664063 -0.0770083 -0.034384 0.0231475 0.0484212 -0.0297537 -0.0362981 0.121271 -0.0493994 0.0739571 0.00188856 -0.0242733 0.0077712 -0.0212455 -0.0652802 0.0829926 -0.0387737 0.0608058 -0.0875057 0.0187002 0.0448001 -0.137497 -0.0344054 0.0357419 0.0349961 0.0667988 -0.0825858 0.0441943 -0.104619 0.133298 0.0461832 -0.0374593 0.0465044 0.0649622 -0.0379899 -0.00549787 0.0105145 0.0180739 0.186563 -0.0286249 -0.0241467 -0.0660705 -0.0186151 -0.0662697 0.00457584 0.0270614 0.0112112 0.0365864 0.0224028 0.00336172 -0.0306885 0.0186558 0.0402179 0.00890081 0.0372291 -0.0394845 -0.0333344 0.103147 0.0189613 0.0631448 -0.0260543 0.000734144 0.0636852 0.0332211 0.030374 0.0190384 0.0284839 0.00537991 -0.0261923 0.0956012 0.0204083 0.0700659 -0.0323608 -0.0378287 -0.0324049 0.0105314 -0.254503 -0.0103473 0.0184717 0.0195996 0.0291357 0.0548 0.0257872 0.0573064 0.0312768 -0.0116625 -0.0367493 0.0785976 -0.00623943 -0.030755 -0.00404053 -0.0404975 0.0110446 0.0466073 -0.00814344 0.262275 0.0244421 -0.0314178 0.109032 0.0762734 0.0767931 -0.032517 0.0435519 0.0380039 -0.013857 0.0727763 -0.0807676 -0.00447661 0.0221684 -0.0345841 0.129322 0.0327248 0.0287604 0.0929272 0.109841 -0.064995 -0.0247015 -0.0205135 0.045295 -0.0012455 -0.0982342 0.00743569 0.018828 0.0773414 0.0580793 -0.00142329 -0.00497824 -0.0595446 -0.0459304 0.064508 -0.0298646 -0.0396564 0.0454206 0.0183941 0.0142321 -0.0262544 -0.0883933 0.086512 -0.0852625 0.0875341 0.00219124 -0.0768852 -0.0409933 -0.092563 0.0286735 0.0545548 -0.0299857 0.023183 -0.108581 -0.00246097 0.0240924 -0.0638354 -0.0482488 -0.0371185
ver 0.00845981 -0.0296231 -0.0262092 0.0281027 0.0235888 0.0667991 -0.0702734 -0.0642053 -0.048395 -0.0329696 -0.0567687 0.00497617 -0.068266 0.0806713 0.113563 -0.00709621 0.0265361 -0.0574721 -0.00941252 -0.0200521 -0.0344504 -0.0581808 0.0303946 -0.0162285 0.0461662 0.0186071 -0.138546 -0.0405347 0.0709132 -0.0508868 0.00615009 -0.028792 -0.0115912 -0.0232127 -0.0327119 0.0437265 -0.0060382 0.02835 0.0541622 0.0355606 -0.0863458 -0.103212 -0.109197 -0.00687157 -0.0588208 -0.0391284 0.0486826 -0.0113785 0.0631484 0.0305547 -0.119534 0.0928394 -0.0345091 -0.0104261 -0.0172348 0.0120621 -0.0329123 -0.0703787 0.0540776 0.0791858 -0.0317511 0.00949447 0.0454383 0.000553863 0.071989 -0.0471269 -0.00130744 0.12648 0.025085 0.017407 -0.0147103 0.0248174 0.0300149 0.0551779 -0.0443098 -0.0119841 0.0893248 0.0164976 0.0299421 0.0701991 0.0102879 0.0666932 0.00831883 0.0540905 -0.0184494 -0.0538827 -0.0347567 -0.103441 0.10288 -0.0502875 0.0866187 0.0417806 -0.0142305 0.0144632 -0.0208114 -0.00876109 -0.039232 0.0337401 -0.0376915 0.0473801 -0.00726512 -0.0428008 -0.0430847 -0.0435513 0.00127907 -0.0479302 -0.131748 -0.0532941 -0.0390299 0.02423 -0.0693353 0.00723747 0.177421 0.0101194 -0.0382555 -0.0355929 0.00774821 -0.00472302 -0.0181673 0.022785 0.029142 0.0160354 -0.0131188 -0.035522 0.0128148 -0.0299285 0.0767827 -0.00102678 -0.066581 0.107369 -0.053266 -0.0146888 -0.0263816 0.00612301 -0.048201 -0.0165799 -0.00178093 0.0747348 -0.00696082 0.0133255 0.0643 -0.0647321 0.0805561 -0.0897556 -0.00125744 -0.030295 -0.0545893 -0.010699 0.00556513 0.0162543 0.0217184 -0.0161073 -0.0133911 0.0430571 -0.0418979 -0.0146724 0.0114518 -0.0247178 0.0386217 -0.0442125 -0.0376982 0.0285303 -0.0580591 0.0508654 0.0645325 -0.0101751 -0.00949031 0.0606599 0.0170259 -0.0204373 0.0967475 0.0024176 -0.0648835 -0.0275114 0.0330655 0.0381327 0.0292994 -0.0428778 -0.0809066 0.127278 -0.00653877 0.0315655 0.0768887 -0.00961209 0.260464 0.0130692 -0.0215468 -0.0170325 0.0400856 -0.00650395 0.00766096 -0.0442947 0.0565432 -0.04917 0.0523391 -0.0152287 -0.0937315 -0.037961 -0.0665776 0.0826461 0.0260781 0.0522249 -0.0488961 0.136254 -0.0323597 0.0664717 0.0163506 0.0288771 0.00632043 0.13046 -0.120989 -0.0530803 0.139547 -0.0581022 0.00958086 -0.0378295 -0.0976276 -0.0236524 -0.0437871 0.0302282 0.0131966 -0.0331053 -0.2266 0.0335202 0.0351396 -0.0510551 -0.0183905 0.0578767 0.00394595 -0.0699472 0.0554844 0.00201345 0.00913158 0.109292 -0.0223525 0.0251873 -0.0140867 -0.0577032 -0.0426346 0.0142272 0.0277648 0.180379 0.035017 -0.0434179 0.00948 -0.0275022 0.0473875 0.0667861 0.002058 0.0109194 -0.0870965 0.0599883 -0.023869 -0.0987899 -0.11574 -0.0285682 -0.0380806 0.0451549 0.0117135 0.0849118 0.0147924 0.0213011 -0.0237463 0.0288128 -0.033097 0.0101204 -0.0059339 0.0934451 -0.0217604 0.00371085 0.0679007 -0.0565051 0.0149037 -0.0282639 -0.127133 -0.0119581 0.0687446 -0.00690939 -0.000587674 0.104368 0.00747429 -0.119593 -0.0766123 0.0825296 0.0858908 0.0808457 0.00217047 0.0256188 0.100409 -0.0592927 0.0385595 -0.0957326 0.00632458 -0.00744707 -0.0131248 -0.0174262 0.0481626 -0.0163146 0.0107763 0.0453027
patches -0.0380983 -0.0360892 -0.0377742 -0.00357204 0.0202973 -0.0123171 -0.035306 -0.142066 -0.0689986 0.0378088 0.0733507 0.0300546 -0.0261946 0.0438125 0.0780092 0.00859844 0.0461466 0.0156929 0.00383592 0.027679 -0.0146288 -0.0489764 -0.0419301 -0.0229886 0.0108317 0.0235278 0.0323648 -0.0173595 0.0207755 -0.0304886 -0.00596962 -0.013297 -0.0477541 0.0535605 -0.0526823 -0.108168 0.047647 -0.00715507 0.0937521 -0.0287537 -0.0186322 0.0546043 0.0575517 0.0913998 0.0655624 0.0139116 0.0265381 0.00156448 -0.082813 0.0209192 -0.0344069 -0.00447699 0.0134903 -0.0369146 0.00772735 -0.0746185 -0.0575454 0.18479 0.0650753 -0.07206 0.0229 -0.0251031 0.0699199 0.027305 0.08885 0.0304224 0.0123851 -0.0100153 0.0690904 0.0528981 -0.0317611 0.0161611 9.12115e-05 0.0783301 0.0420795 0.0673353 0.0278976 0.0541909 -0.0315747 0.0285968 0.103226 0.0471626 -0.0278354 0.0859061 0.0144993 -0.0249546 -0.00453464 0.0536719 0.0512586 0.0786193 0.114255 0.0264783 -0.0608632 0.0586328 0.0853096 -0.0492362 0.0628142 0.0745678 0.0791331 -0.00801487 -0.0293821 -0.00906883 0.0311173 0.00227647 -0.000157103 0.0928934 0.00983726 -0.013968 -0.00949987 -0.145103 0.00828438 0.0511065 0.00352415 -0.0393228 0.0414538 0.00255484 0.0788346 -0.0215987 0.056998 -0.0503478 -0.0628897 -0.0246625 0.00455524 0.0311737 0.0767798 0.0654781 0.0150342 -0.0482324 -0.041452 -0.0524942 0.0123264 -0.0392469 -0.100211 0.0987183 0.0373355 0.0180353 0.045475 0.0341168 -0.0858215 0.00761829 0.0226435 -0.0281131 -0.029199 0.0138974 0.0370665 0.0452702 0.0497752 -0.0695219 0.051026 -0.0113395 0.0485494 -0.0493471 -0.0106405 0.0957574 0.00206065 0.0790222 0.014134 0.0380977 -0.020514 -0.0508495 0.0276809 0.0528732 -0.0684463 -0.119516 -0.0481523 0.020182 0.0487544 0.0499802 0.0707577 0.0158795 -0.0449206 -0.0779571 -0.0756901 0.00974926 -0.029997 0.0299395 -0.0961352 0.0174704 -0.0981382 -0.0257666 0.0468644 -0.0414024 -0.00775359 0.00384964 0.211773 0.0220686 -0.0179508 0.0198185 -0.0179314 -0.0373424 0.000377201 -0.0518662 0.0924642 -0.067901 0.0358031 -0.106967 0.0146045 -0.015629 0.0421098 -0.027189 -0.0293268 0.0124147 0.00382356 0.0511442 0.0257567 0.0180815 -0.00419268 0.0491483 0.108132 -0.0130018 0.00647373 -0.0808841 0.0644609 -0.0603349 0.0451276 -0.0270299 0.0314352 -0.0085844 0.0521678 0.00135475 0.0314387 -0.0297818 -0.214605 0.116055 -0.00769822 0.0128296 0.0540706 -0.069494 0.00189439 -0.0185936 -0.0209278 -0.0424136 -0.0256661 -0.0263537 0.054735 0.0215924 0.0342421 0.0543745 -0.0911962 -0.000157713 0.0299564 0.29147 -0.0309872 0.00293753 -0.00785395 0.166782 0.0725124 0.050718 0.0310307 0.0670609 -0.0391162 0.0317651 0.0543306 0.0260427 0.0478952 0.0135638 0.00382097 -0.0140151 0.0205374 0.0944623 -0.0679094 0.0627556 -0.0195946 0.1189 0.0276844 -0.0887814 0.0357113 0.00306596 -0.118347 -0.0608237 0.0418632 0.0387362 0.057592 -0.0393985 0.0377811 0.0139053 -0.0752432 0.00329917 0.0618594 -0.0578031 0.0810885 -0.0111636 -0.00556024 0.0276816 -0.0830973 -0.0323638 -0.0327138 0.0330825 0.00820507 0.0551439 -0.0598565 -0.0816764 -0.00880603 0.0331342 0.0136317 -0.0413675 -0.0936028 0.0794185 -0.0582466 0.0278219
icons -0.0349 0.0644542 0.0256483 -0.0873231 0.0323051 -0.0440721 -0.0800636 0.010201 -0.0351503 0.0597893 -0.0520212 0.0233615 0.0108066 0.0529392 0.0424299 -0.0598141 0.0988341 -0.0269926 0.0057446 0.0211488 -0.0345859 -0.0459238 -0.0106376 0.046873 -0.0141323 0.0458027 0.0614939 0.0694542 0.0720353 -0.0056828 -0.0585433 0.0662223 -0.00670766 -0.00637924 0.031592 -0.0780452 0.0656546 0.0226024 0.0150642 0.0898632 0.00797663 -0.0357962 -0.0461272 -0.129405 -0.00174565 -0.0285085 0.0435917 -0.0250059 -0.0927751 0.0319289 0.0936692 0.0146641 0.0201002 -0.046768 0.151495 -0.0129058 -0.0010677 -0.0220679 -0.0235702 0.0111669 -0.0508792 0.0533361 0.0063236 -0.0167177 -0.0346761 0.0489344 0.0148443 -0.0204577 -0.00211706 0.0691332 -0.0188914 -0.0149763 0.115162 0.022746 -0.0432541 0.00718788 -0.0612153 0.0341062 -0.00123723 -0.081622 0.0283921 0.0335414 -0.151494 0.0475258 -0.0356627 0.000238723 -0.0835276 0.00683064 0.0380379 -0.0432189 0.0369881 0.0534433 0.0199559 0.0550715 0.0877765 -0.0412122 0.0493367 -0.0863639 0.0266201 -0.0254387 0.00487123 0.0190679 0.00334088 0.0315621 0.0854711 -0.107831 -0.0419356 0.0764957 -0.0142848 -0.0126774 0.0139487 0.0386732 0.0568995 0.0199914 -0.0312542 -0.0193145 0.0688734 0.0526933 0.0477724 0.0605713 0.00451045 0.0918801 -0.0439219 -0.018117 0.0338986 -0.069398 0.0109897 0.0272216 0.040165 -0.0618831 0.0492989 -0.0990335 0.0698238 -0.0591827 0.00420623 0.0051978 0.096172 0.0210794 -0.0204129 -0.010317 -0.0189523 -0.00368779 -0.0277504 -0.0214656 0.043096 0.0752861 -0.00845762 0.0204358 0.0355142 0.0613022 -0.0434233 0.0694755 -0.0216472 -0.0109564 0.0539211 0.012187 0.0399396 -0.0743384 0.0501513 0.0279225 0.0212286 0.117183 -0.0119566 -0.036924 -0.117642 0.0338924 0.0109071 0.0277915 -0.0206246 0.0179231 0.00101669 -0.0281076 0.0890794 0.0686487 0.0429688 -0.0443902 -0.0115205 -0.0720318 -0.0172142 0.000153189 -0.0682859 -0.0299084 0.0317237 -0.024088 0.207397 -0.0692303 0.0688114 -0.0207849 0.0586838 0.0293558 0.0426097 0.0868031 -0.0294197 0.0445194 -0.068806 -0.0382694 0.00604604 0.0193946 -0.0381087 -0.0546542 0.0550048 -0.0895595 0.0615167 -0.161477 0.0441911 0.0160647 0.0854063 -0.0245692 0.137584 0.0665635 0.0331636 -0.0508679 0.082749 -0.0753184 -0.0180073 -0.0219785 0.0245641 0.0437026 0.0376499 -0.042766 -0.0816232 -0.0157981 -0.220045 0.152833 -0.0526831 -0.0275792 0.0354604 -0.0538126 -0.0164805 -0.0535316 -0.0117031 -0.0713458 -0.0315197 -0.0169769 0.0337195 0.0173153 -0.0121312 0.0388315 0.0822246 0.0448179 -0.0136496 0.248895 0.0246988 -0.00804721 0.00337494 0.0611512 0.0206932 -0.0156732 0.0321662 -0.00737744 -0.000586095 0.0167183 0.0750382 -0.00799559 0.00956277 -0.0502116 -0.00829518 0.00704409 -0.0459434 0.239 -0.0569468 -0.0152345 -0.100856 0.0626005 -0.0246481 0.0448863 -0.0293185 0.00540539 -0.10611 0.119641 0.0691389 0.0578197 0.0434036 0.0224094 -0.00101854 0.0368813 0.0136768 -0.0766959 -0.0105748 -0.0256014 -0.0203233 -0.0784576 -0.0449247 0.0777654 -0.013006 -0.0508684 -0.0442655 0.0404618 -0.0231159 -0.00900889 0.0484277 0.0268964 0.0164056 0.0100444 -0.0536737 0.0441271 -0.0163171 -0.0321436 -0.0432475 -0.0251893
white -0.0435394 -0.0330798 -0.0624576 0.02904 0.0738075 0.068488 -0.0675135 -0.0685676 -0.0726106 0.0146447 0.0443276 0.00078685 -0.0403531 0.0189336 0.0837947 -0.0141437 0.000806404 0.0392519 -0.0192719 0.026446 -0.037038 -0.0597483 -0.0152988 -0.0114619 0.0245557 0.000282774 -0.0141085 -0.0116773 -0.0713559 -0.00244509 0.0360709 0.00336004 -0.0113237 -0.027865 -0.00544788 -0.0867578 -0.00620733 -0.0373082 0.0478989 -0.0178056 0.0316473 0.0741579 0.0477651 -0.0193651 0.011218 -0.030434 0.0414746 -0.077467 -0.0826943 0.0122975 0.00176245 -0.0143189 0.0376779 -0.0955148 0.0118157 0.0113171 0.0287315 -0.0301958 0.0116454 -0.109128 0.0610117 0.00747484 -0.0237227 -0.0059269 -0.0262213 0.0401804 -0.0827013 0.0367341 0.00642863 -0.00684103 0.0491658 0.068665 0.0526494 -0.00293628 -0.0272343 -0.0747701 -0.064133 0.013006 -0.0393392 0.0772652 0.0128299 0.0143894 -0.0378785 0.0117263 0.0513973 -0.000104445 -0.056073 0.00569026 0.0296973 0.0971887 -0.0478302 0.0320036 0.0357078 0.0324503 0.037258 0.0318812 0.0149181 -0.049113 0.0431001 -0.0201963 0.0400109 -0.0120301 0.0550366 0.0714331 0.022954 0.0526567 0.0502852 0.014075 0.0142638 -0.00509392 0.02889 0.0233614 -0.0353167 0.0562222 0.0159814 -0.0139181 0.00362841 -0.0118811 0.0251267 -0.00288219 -0.0714291 -0.00743386 -0.0388978 -0.0150523 -0.000261815 0.0700827 -0.00356225 -0.00944641 0.0516378 -0.0339892 -0.0170153 0.00562598 -0.0342682 0.033018 0.0135982 -0.0148681 0.0394861 0.0666056 0.022778 0.0878757 0.00302305 -0.000839658 0.00263115 -0.0124826 0.0240141 0.0500931 0.0470152 -0.0134632 -0.0545596 -0.0746438 0.106827 -0.0366138 0.00819764 -0.0104905 0.0373505 -0.0116845 -0.0112493 0.0206468 0.00826626 -0.0273153 -0.00512881 0.0186331 -0.0293475 -0.0304211 0.000948904 -0.0488131 0.0651882 -0.013135 -0.0309905 0.0622638 -0.00746957 -0.0337004 -0.0358444 0.0292598 0.0766823 -0.00374257 0.0304037 0.0165284 -0.0329328 -0.0160199 0.0124082 0.0285864 0.0177213 0.0180274 0.257306 0.0566589 0.0120019 -0.00493362 -0.0763176 -0.00201185 -0.0145396 -0.0352149 0.0628613 0.00302972 -0.016566 -0.0489967 -0.0160858 -0.0728068 -0.0194755 -0.0186652 0.00568897 0.0170963 -0.0200538 -0.0501747 0.0183513 0.0111237 -0.0656677 0.052006 0.0298428 -0.110945 0.0143163 -0.0940721 0.035517 -0.0400947 0.0730516 -0.0644745 -0.0145468 -0.0158616 0.125012 -0.0217421 0.0816089 -0.0188632 -0.424189 0.0631193 -0.0338936 0.0353503 0.0348663 -0.00567316 -0.0160482 -0.0576791 0.034336 -0.0127953 -0.0324381 -0.0643534 0.0364199 -0.00873193 0.0433215 -0.0492661 -0.00787775 0.00859926 -0.0334217 0.331084 -0.0276133 0.0723144 -0.0627386 0.0468509 0.049959 0.0443149 -0.00128531 0.0137932 0.00923694 -0.0408831 0.0498291 0.0050445 -0.0299731 0.052183 -0.0205769 -0.0232966 -0.024271 0.345039 -0.0678424 0.0256737 0.0323238 -0.0191582 -0.034235 -0.014042 0.0408075 -0.00889269 -0.14104 0.0258459 0.015838 0.0315303 0.00153963 -0.0514806 0.04525 -0.0494131 0.0444399 0.0212657 0.0427057 -0.0591257 0.0415848 -0.00568206 0.0465525 0.0137676 0.00903742 -0.0405691 -0.00996571 0.0948007 0.020378 -0.0239858 -0.0743703 -0.0531434 -0.00411035 0.0258728 -0.0232874 0.0193174 0.0139142 0.0210733 -0.0106907 0.000411106
send -0.0219139 0.050446 0.0487589 0.00142917 0.0741943 -0.0861267 -0.0285536 -0.00648789 0.0647099 -0.0962109 0.0374342 0.00276715 -0.0452684 0.0214472 -0.0389603 0.0890186 0.0437208 0.0260928 0.0204135 0.0225945 -0.0151586 0.0076113 0.0191987 0.0435359 0.0633943 -0.0854441 0.0277408 -0.0187167 0.0150644 0.0734423 0.0653937 -0.0243654 0.0842622 0.00630522 -0.0419247 -0.0454535 -0.00459358 0.070889 -0.0192514 -0.0210433 0.0918431 -0.110344 -0.0196405 0.012709 -0.0869602 0.018061 0.0258799 0.0498863 -0.0796444 0.0215457 0.00791343 -0.0438941 0.0622976 0.0242357 -0.0133903 -0.0155955 0.0402012 0.10384 0.0288001 -0.0247358 0.0101247 -0.0155093 0.0443076 -0.00589935 0.0475706 0.0211177 0.103279 0.00344658 0.023275 0.00364816 0.0468402 0.0520935 0.0440333 0.0308154 0.0451506 0.0334059 -0.0570789 0.0397255 0.0353149 0.0103809 0.0276112 -0.044457 -0.0313691 -0.00037215 0.0289454 0.0219243 -0.0246373 -0.0368723 0.0521366 0.0278232 0.0200345 0.0426068 0.00344885 -0.0507066 0.0323908 -0.0737199 -0.0367987 -0.0289502 -0.0188222 -0.0577701 -0.0191659 -0.0107725 -0.0179894 -0.038548 -0.0629396 0.0296006 0.0343205 0.0502763 0.0557635 0.00825413 0.0323202 0.0560199 0.0439312 -0.00742439 0.00617502 -0.0328163 -0.047624 -0.0482748 0.00461414 -0.0554674 0.05574 0.00514613 0.0269067 -0.04129 -0.0218865 -0.105703 0.0127245 -0.0851188 -0.0561808 -0.0457018 0.00525833 -0.0158009 -0.029669 0.0315878 0.0692035 0.0350763 -0.0336711 -0.0989053 0.0272829 0.079054 -0.0220896 0.0504465 -0.057728 -0.0727156 -0.0568164 -0.067591 -0.0129141 0.077142 -0.0291414 0.0199998 -0.0331588 0.0316132 -0.0198079 0.0285389 -0.0241613 0.0645199 -0.053083 -0.0859843 0.0204387 0.0204483 -0.0417418 -7.33411e-05 0.00242132 0.0498853 -0.0315554 -0.0738641 0.0342772 0.0192479 0.0838295 -0.124449 -0.0104808 0.0620749 0.00499718 0.0203022 -0.0476916 0.0256694 0.118117 -0.00473784 -0.0764883 0.0419762 0.0446188 0.0167711 0.0448624 -0.0332656 0.233321 0.0106963 0.0169094 -0.0203707 0.0326146 -0.0432513 0.0808617 -0.0280633 0.021169 0.00499264 -0.00094905 -0.017925 0.0485363 -0.0244096 -0.0383535 0.0825549 0.01385 0.0201278 0.00654143 -0.0338189 -0.074847 -0.00413009 0.0153404 -0.0339202 0.00167974 -0.0244686 -0.0306501 -0.0589363 -0.00631792 -0.0111592 0.0105779 0.00717594 0.0129882 0.010726 0.0286673 0.00374388 -0.0618656 0.0227244 -0.351203 0.0395449 -0.0149738 0.0362989 0.0397266 0.00176593 0.023389 -0.0335066 -0.0986076 0.00347047 -0.0316072 -0.086091 -0.0407815 0.0248982 0.0522375 -0.00036474 -0.0494673 0.017429 0.0408463 0.389246 -0.031119 -0.0248878 -0.00503483 -0.0259697 -0.0600838 -0.0373405 -0.0128835 0.0433061 0.0051927 0.0181626 -0.00557453 -0.00128869 0.0269545 0.0558521 -0.0400676 0.0130736 0.0106384 0.28587 0.0063961 -0.0290724 -0.0783613 0.0739096 -0.0353545 0.102537 0.0317071 0.0587085 0.0426947 0.013842 0.0338715 -0.0359075 0.0266534 -0.0419304 0.0158157 0.0032007 0.0203917 0.0421374 -0.00528812 -0.00432456 -0.0260019 -0.0256553 0.107533 0.0316253 -0.0298098 -0.027936 -0.0599099 -0.0624348 -0.0176342 -0.0371065 -0.00154682 -0.0144022 -0.0320173 -0.0234677 0.0257688 -0.110334 -0.0151146 -0.052012 -0.0522494 -0.0342913
list -0.0138608 0.00432406 0.0298245 -0.0270719 -0.0371509 0.028091 -0.0550979 0.0680487 -0.0118811 -0.0243853 0.0443075 -0.0241648 -0.044692 -0.0671739 -0.02138 -0.0946708 0.020672 -0.0373149 -0.0235798 0.0704936 0.0167385 -0.0565276 -0.0521015 -0.00544443 0.0423334 -0.0416002 -0.026828 -0.0123749 -0.0521543 -0.0128244 0.00992998 0.095157 -0.047416 -0.0396664 -0.00124731 0.0343788 -0.0550375 -0.00825515 0.0165368 0.00187265 0.00301609 -0.022303 -0.104563 0.0284453 -0.00384265 0.0627113 0.0433564 -0.0316321 -0.0202378 -0.00234878 -0.0334549 -0.0287002 0.0262889 -0.0234034 -0.00951574 -0.000244646 0.00594408 -0.0252769 -0.0228115 0.00615069 -0.0744146 0.026665 -0.0476978 -0.0595463 -0.038799 0.0424649 -0.0267261 -0.0641895 0.00776755 0.027991 -0.0149146 0.0197439 -0.00500713 -0.0067165 0.0159394 -0.0787575 0.000622192 0.038864 -0.0492409 -0.0249899 0.0211831 0.0678493 0.0373769 -0.00368814 -0.0198873 -0.0214595 -0.0765729 -0.0137459 -0.110573 -0.00395146 0.0267409 -0.014254 0.0287499 0.0557524 0.0248422 0.00092918 0.00242834 0.039691 0.0265544 0.007469 0.0304274 0.00686662 0.035836 0.0148764 0.0265171 -0.0536016 0.0398029 0.00169721 0.0151585 0.0554816 0.0336788 0.00999547 -0.00549383 0.0686607 0.0362711 0.0507853 -0.0169799 0.0100251 -0.0285758 -0.011991 0.0866805 -0.0123271 -0.0448633 0.0688741 0.0436285 -0.0475161 0.032005 0.0761425 0.070899 0.0182539 -0.00685052 -0.00234371 0.0337376 -0.0221187 0.00235249 0.0321905 -0.00411689 -0.0625527 -0.0126585 0.0101231 -0.0143088 -0.00506385 0.0420275 0.0112931 -0.0343474 -0.0148281 -0.0694608 0.0686932 -0.0219152 0.0466835 -0.0108344 0.0327672 0.0469234 -0.00556327 -0.034555 -0.0143837 -0.00305638 -0.0640262 -0.0513874 0.0349626 -0.025077 -0.00820688 -0.0154463 -0.0316106 -0.00172985 -0.00543959 0.0353683 0.113653 0.00547943 -0.0349715 -0.0152897 -0.0442902 0.0552863 -0.0204973 -0.0136525 0.0490268 -0.0527454 -0.00340557 0.00432834 -0.0100494 0.0483935 -0.0158174 0.0445146 -0.0440772 0.355255 -0.00387866 -0.033102 -0.0195805 -0.0240378 -0.0165499 -0.0550181 0.0317666 -0.0697074 0.00838569 0.0393456 -0.0557254 -0.035871 0.007636 0.0107588 0.0240158 0.0237891 0.00456634 0.0643318 0.00949211 -0.0686767 0.0808155 0.00859376 0.0282793 0.000460708 0.0804224 0.0291408 0.0107188 0.0682445 -0.069833 -0.0565247 0.021559 -0.00223377 0.00549215 0.0691794 0.0680571 0.0132627 -0.0322985 -0.380257 0.0324057 -0.0421375 0.00948468 -0.0309478 -0.0165579 0.0141485 -0.0387521 -0.0245649 0.00234923 0.0297425 -1.00154e-05 0.0308846 -0.0527294 0.0145105 0.0158691 0.0483975 0.0481114 0.00760539 0.386687 -0.0239341 -0.0350157 -0.0158129 0.0389727 0.02982 -0.0332733 0.0485706 -0.0179756 -0.028496 0.0190621 -0.00792172 0.0370761 -0.0336392 -0.0889301 -0.0325901 -0.0515024 0.0386196 0.372184 0.0495649 -0.0111604 0.0348802 -0.0350998 -0.0325122 0.030464 0.00977716 0.0172225 0.0246619 0.126844 -0.00744683 -0.00199137 -0.0280943 -0.0187432 0.0232992 -0.045332 -0.061112 -0.0144438 -0.00195615 0.0280549 -0.0127427 0.0219127 -0.0127057 -0.0306613 0.0208561 0.025359 0.0229786 -0.00935887 -0.0340965 0.0504805 0.00323047 -0.0236561 -0.0203034 0.0520645 0.0361559 -0.0317275 -0.0452548 -0.0318448 -0.0399839 0.0144451
charge -0.00274519 -0.0156839 0.0246092 -0.0145851 -0.0171737 0.0121571 -0.01874 0.0914332 -0.0185482 -0.0662277 -0.0454952 0.0331606 0.0483624 -0.00161237 -0.0295931 0.146236 -0.00350671 -0.0644473 -0.0162671 -0.0334192 0.00353129 0.0183486 0.0702917 -0.0542231 0.00650611 -0.0601073 -0.0103657 0.0368621 0.0362016 0.0584843 0.0315934 -0.0630542 -0.108317 0.0263217 0.0380463 0.0858442 0.0102065 0.0344323 -0.0108671 0.0421749 0.0169671 0.0503692 -0.0175598 -0.051789 -0.00614337 0.00344789 -0.0525379 0.011271 0.0147455 0.00733625 0.0145308 0.0548881 0.0123389 0.0373729 0.0294789 0.0828582 0.00989489 0.0194432 -0.00854805 -0.102172 0.0474802 -0.0707464 0.0640962 0.0517216 0.0297109 -0.0459858 0.0729365 -0.0492679 0.00590932 -0.0511733 -0.0304643 -0.058127 -0.0851407 0.00523714 -0.0431258 -0.0298784 -0.00370527 0.0532852 0.0125575 0.0472153 0.0406573 -0.0124802 0.0429119 -0.0255769 -0.0360167 0.0521165 0.0234676 0.0409919 0.0550734 0.0425077 0.0461295 -0.0427583 0.0129029 0.0507365 -0.059356 -0.0109182 0.0513149 -0.0347887 0.00595295 -0.0641358 -0.00752901 -0.0487464 0.0103334 -0.0465083 0.00195247 0.0230085 -0.0424735 -0.0299027 0.00708232 0.0384822 -0.00869621 -0.0321929 0.0945762 0.0529653 0.0384086 -0.00354855 -0.0941093 -0.0266321 0.0509138 0.0531003 -0.0112688 0.0857108 0.0312618 -0.044378 -0.0924699 -0.0286242 0.00946284 0.00165186 -0.0335224 -0.0318364 0.0248244 0.0447568 0.0160604 -0.043813 0.0196735 0.00252219 -0.0087462 -0.0262491 0.00262451 -0.00193383 0.0227203 0.0814193 0.0274779 0.064005 -0.0706144 -0.00196558 0.05793 0.00178856 -0.0182632 -0.00576061 -0.0421435 -0.0406221 0.0338371 -0.101776 0.0185787 0.0354413 -0.0538051 -0.0264003 0.00457283 -0.00246392 -0.0987854 -0.060192 -0.0749504 0.0468614 -0.00311953 -0.0704113 0.00140083 -0.0349788 0.0543696 0.0024218 -0.111929 -0.014327 0.00943881 -0.132232 0.00571711 -0.0235437 0.0157343 -0.0283214 -0.0226866 0.0011527 -0.0741681 0.0344811 -0.0510138 0.0437558 0.320002 -0.0138617 -0.0417897 -0.0711253 0.0151436 -0.0413859 0.00598154 -0.00689964 -0.0256269 0.0192079 -0.0732159 0.017763 -0.00147498 -0.055418 -0.0500572 0.0599206 0.0178821 0.00363526 0.0551148 0.00457684 -0.0422227 0.0492523 -0.0137371 -0.0365327 -0.0430802 -0.0067599 -0.048785 -0.0277212 -0.00995689 0.0268809 -0.020282 -0.0312116 0.0798774 -0.0208106 0.0775131 0.0397025 0.035023 -0.00356415 -0.335216 -0.055833 0.025727 0.0147255 -0.0356619 -0.0245755 0.0168259 0.0425344 0.05337 -0.0364943 -0.0785071 -0.0258038 -0.0216217 0.0705508 -0.00885984 0.0367663 -0.0652211 0.0279588 -0.00733225 0.384529 -0.0437166 0.012185 0.0446293 0.0307272 -0.0237897 0.0536756 -0.0321798 0.0563208 0.0437089 0.0107524 -0.031589 -0.0214869 -0.0088354 0.0325894 -0.00469255 -0.0190433 0.0100056 0.26284 -0.0367583 0.0337918 -0.0171437 -0.0288624 -0.0262393 -0.102096 -0.0660453 0.0142066 0.0225183 -0.0263406 0.0170537 0.00574873 0.0851342 0.0192623 0.00599866 -0.00410709 0.0215257 0.0311316 0.00466908 -0.0255663 -0.10644 0.0015472 0.0399469 0.0263716 -0.0182785 -0.0562583 0.0916595 0.0433906 0.0078582 0.0496794 -0.0322218 -0.0483035 0.0371598 0.0134026 -0.00972022 -0.00817261 -0.0154116 -0.0343915 0.0235974 -0.0662493
bike -0.0477061 -0.0644068 0.0539708 -0.00706641 -0.0297915 0.0106002 0.102296 -0.0157377 -0.0438498 0.0167921 0.0683964 0.0340265 -0.135424 -0.0360671 -0.0247458 -0.0207431 0.0751668 -0.0781655 0.0300806 -0.0538586 -0.0276732 0.0315313 -0.0203779 -0.0395712 0.102896 0.0520386 0.0225193 -0.0227409 -0.0110115 0.0743635 -0.0386595 -0.0902737 -0.0731256 0.02617 -0.0468215 -0.133784 0.0332953 0.0244688 -0.00136921 -0.0875293 -0.0468959 -0.0984187 0.0640882 -0.0106405 0.0570574 -0.038153 0.019104 -0.0240084 -0.0325927 -0.0514721 -0.00574323 -0.00355608 0.0052995 0.017453 0.0378732 -0.0979318 0.0759064 0.0527241 0.0625168 -0.00757911 0.0205437 0.00276557 0.0477345 0.105036 -0.00341175 -0.012293 -0.0103942 0.128689 -0.0960111 -0.00318703 0.0289348 -0.0892332 0.0521086 0.0358136 -0.0478952 0.0407954 0.0707024 0.0491735 -0.0573939 -0.00948356 -0.00370544 -0.155769 -0.0335669 0.0180365 0.0279121 0.000275498 0.0158143 0.0160104 -0.0330683 -0.0115472 0.0315176 -0.0727701 0.0816934 -0.0157824 -0.0517014 0.0199864 0.077644 0.0295447 0.00840235 -0.0500175 -0.0433436 -0.011781 0.0419148 0.0301645 0.0179234 -0.132754 0.0829901 -0.0754999 -0.0823818 -0.0824921 -0.00331887 0.0784042 0.065484 0.0560181 0.0154231 0.0388233 -0.0665774 0.0161745 -0.0744518 0.0518381 -0.0468861 0.0548939 0.0395574 0.105561 0.0676507 -0.0180434 -0.00688215 0.057414 0.00270583 0.02762 0.023493 -0.1025 0.0575237 0.0203062 -0.0424597 0.0196625 0.0340486 0.0605176 0.0510971 -0.0765804 -0.00106547 -0.0305017 -0.0137749 0.123593 0.0797726 -0.0107296 0.0480526 0.0312804 0.0370917 -0.0650773 0.0290489 0.000778563 0.00701454 0.077989 -0.0295625 0.0784777 -0.0505257 -0.0853357 -0.0123588 0.0737732 0.023465 -0.0281111 0.0164978 -0.0346774 0.00135726 -0.00115997 0.00977115 -0.0998284 -0.051843 -0.0427842 -0.00595138 0.0196854 -0.0507379 -0.0553339 -0.028401 -0.00390056 0.0168271 -0.071036 -0.00299097 0.00174776 0.0457927 -0.0150595 -0.0597525 -0.0172215 0.0643026 0.0705939 -0.00860439 -0.0481533 0.00661249 -0.0424377 0.038724 0.114458 0.0176646 0.057265 0.00265898 0.025029 0.0401097 0.00808218 -0.00065351 0.0040825 0.0478935 0.0090397 -0.0517791 0.0747589 -0.0329304 -0.0347699 0.0574942 -0.00501083 -0.0747156 -0.0156436 -0.0108327 0.0547126 -0.0411516 -0.0442361 0.0438969 0.00829291 0.070166 0.00439099 0.0993566 -0.0185677 0.0298825 0.056174 -0.229757 -0.00975513 -0.044652 -0.0277239 -0.0517157 -0.0232662 0.014844 0.0317268 0.106519 -0.105247 -0.0630324 -0.0119674 -8.22828e-05 0.00229835 0.00828666 -0.0428141 0.0685743 0.0269684 -0.00753811 0.288817 -0.035212 -0.0347922 0.0743277 0.000352214 -0.0186148 0.0967539 -0.0548644 -0.0370524 -0.0400421 0.0084792 0.018372 0.0838593 -0.0359212 0.0489813 0.00703423 -0.0567431 0.0574744 0.316303 -0.0398543 0.0315692 -0.0198382 0.115878 0.016734 -0.0138357 -0.0538066 3.44882e-05 0.0261306 -0.0150171 -0.0113664 -0.0165559 -0.00255864 0.0426806 -0.044274 0.0432655 0.0431623 -0.0249721 -0.00584113 -0.0455181 -0.0343376 0.0195795 -0.0233094 -0.0497485 -0.0421038 0.0210693 -0.035886 -0.0672094 0.060132 -0.00775753 -0.00721101 0.00350177 -0.0298957 -0.00769901 -0.000608974 0.0630211 -0.0552043 -0.0481016 -0.00190214 0.054554
verse -0.0231347 0.0354754 0.0137917 -0.0160888 -0.0726077 -0.00787786 0.0617896 0.0444882 -0.0649503 -0.0673239 0.00110942 0.0081176 -0.00638808 0.127564 -0.0105612 -0.0105014 0.0133708 -0.0951812 0.102172 0.0447162 -0.0199711 -0.0510413 0.00869476 -0.00911651 0.0301143 -0.0621901 -0.0656146 -0.0261051 -0.019389 0.01152 -0.0547141 0.0409864 0.0516083 0.00251193 0.0285098 -0.00947463 0.0168858 0.0142245 0.0178093 0.0734055 0.0919046 0.0404233 0.0478286 -0.0415977 0.0410446 0.00273773 -0.0479258 0.018599 -0.0359752 -0.00620338 -0.0250901 -0.031898 -0.093465 0.0266828 -0.0666752 -0.0666054 0.0117734 -0.000494812 0.0258758 -0.0478207 -0.0595417 0.133589 -0.00594408 -0.0135252 -0.0522871 -0.0459615 0.028956 0.0808608 0.00698438 0.0159404 0.0213203 0.18702 -0.00324845 0.0427169 -0.0969121 0.0819422 -0.0202455 -0.0486791 -0.0182147 -0.0445348 0.0225346 -0.0632501 -0.0690949 0.041105 0.0896086 0.0137873 -0.0500329 0.0337827 -0.00361023 -0.0139888 0.0544557 0.105497 -0.0518242 0.04666 0.0452927 0.0898269 -0.0167879 0.0308601 -0.00676112 -0.0159254 -0.0715214 0.0855126 -0.000974562 -0.108539 -0.106732 -0.0263447 0.00549192 -0.00106353 -0.00891844 -0.00334164 0.0142548 0.0360767 -0.031244 -0.131972 -0.0176896 -0.0423109 0.0973389 -0.0212299 -0.0438126 -0.0274241 -0.00844925 0.0349809 -0.049765 -0.00829638 -0.0515528 -0.0466547 0.00891816 -0.03664 -0.00878598 0.0542596 -0.0407501 0.0355227 0.0568755 0.0272963 0.100684 0.0910967 0.00518391 -0.0321856 -0.0366527 0.0164109 -0.0404665 0.0175731 0.0175009 0.0168665 -0.0403377 -0.000466658 -0.0367369 0.000511142 0.0107727 -0.00597266 0.0582985 0.0562322 -0.0357774 -0.0489863 0.0372904 -0.049084 -0.0500978 0.0312554 -0.0538824 -0.0525406 -0.0275973 0.0581772 0.0320696 0.0596917 -0.0458143 -0.104105 0.0535014 -0.0281326 0.0124155 0.0409268 0.0803287 -0.0183711 0.0255122 0.013242 -0.0135847 0.0499268 -0.0738755 0.0439105 -0.00424989 0.0355728 0.0122699 -0.0117643 -0.0862439 0.00771485 0.208945 -0.0204261 0.00318693 0.0525232 0.0896905 -0.0205732 -0.0563954 -0.0296165 0.0876507 0.0204896 -0.0616038 0.0556148 -0.101156 0.0703957 -0.0518192 -0.000522685 -0.0245751 -0.00559933 -0.04354 0.0358985 -0.0127528 -0.00531568 -0.00539915 0.0516891 0.070354 0.0436712 -0.022795 0.0596903 -0.0083158 0.00354181 -0.00833269 -0.0440239 -0.092395 0.149647 0.0532308 -0.0433613 -0.0468206 0.0144941 -0.296842 0.0220751 -0.0212137 -0.0273428 -0.0516757 0.0524799 -0.00996959 -0.0488092 -0.00779706 0.0416847 -0.0587126 0.0698374 -0.0273864 -0.037258 0.0366603 -0.00696411 -0.0107613 -0.0631344 0.0193797 0.224663 0.0115611 -0.0588313 0.0200086 -0.010407 -0.0266733 0.00364894 0.0414035 0.0410531 0.0149573 -0.125628 -0.0595073 -0.0631003 -0.0730958 0.0264938 0.0536029 0.0877645 -0.0569576 0.256441 -0.0381599 -0.013423 0.0169298 0.00587623 -0.0157415 -0.0255878 -0.016255 -0.0529006 0.0184866 -0.0347721 0.0307089 0.0140677 0.0652999 -0.0402555 0.0580384 -0.026816 0.022127 -0.0235436 -0.00593845 0.0403164 -0.0180768 0.00665807 -0.040345 0.0158664 0.011347 -0.0881837 -0.0699514 -0.118055 -0.0160194 0.0302529 -0.0192856 0.143274 0.0235552 -0.0722065 0.0433173 0.105752 0.0236265 -0.0432522 -0.0193938 -0.00437293
lord -0.0964572 0.0657129 0.0423819 -0.0904873 0.0354786 -0.0573952 -0.0481109 0.081976 -0.0510408 -0.000897085 -0.0499722 -0.00444562 0.0232608 0.0268734 0.0144334 0.0196058 0.0127813 0.036425 0.0390729 0.0146634 0.0192842 0.0475129 0.036924 -0.0221638 0.0551141 0.0151757 0.0239224 -0.0341796 -0.0358551 0.00705762 0.0602614 0.0117657 -0.044775 -0.130533 0.0621937 0.0623479 -0.0464853 0.0666536 -0.0394044 0.0402484 0.0451599 0.0645868 -0.0214121 -0.0184533 -0.0769412 0.019166 -0.00819386 0.0557143 -0.0136916 -0.00461376 -0.0226692 0.0922585 0.0434588 -0.0227756 -0.111709 0.0360377 0.0302061 0.0276227 0.0274031 0.0802398 0.0163594 0.0690213 0.0401612 -0.0634876 -0.0615229 -0.0509916 0.0254407 -0.0331672 -0.0201005 -0.0680631 0.0255619 0.101742 0.0257968 0.0970425 0.0690317 0.0928038 -0.000677658 0.0051357 -0.0331709 0.0209305 -0.0250127 0.0102621 -0.008574 0.0523375 0.0633962 -0.0019521 -0.0252048 -0.00522853 0.0953213 0.0150705 -0.0559932 0.0127132 -0.0436823 -0.0447447 0.0565362 0.0387871 -0.0503372 -0.0860542 -0.0280904 -0.0334118 -0.0969093 0.0272419 0.00463708 -0.0106049 -0.0646156 -0.0608949 0.0586635 -0.0348624 -0.051046 0.0903974 0.00595434 0.012662 0.00263335 0.00650819 0.0427334 -0.000105942 0.0327091 -0.0938352 -0.0213093 -0.0358443 -0.0172718 -0.00230322 -0.010312 0.00349017 -0.00582832 -0.0159181 0.0142608 -0.072527 0.00222153 -0.000700865 0.0651986 -0.00868006 0.0245822 -0.0429682 0.0530508 0.0572043 0.0622109 -0.000540618 -0.0829037 0.0669414 0.045018 0.107263 0.055656 -0.0521655 0.0154096 -0.074659 -0.0311674 -0.074 -0.00413429 0.0600547 0.0130237 0.0219428 0.00707398 -0.0490037 0.0260781 -0.000273268 0.0109801 -0.08351 0.038521 0.0237463 0.131335 0.0283703 -0.0165264 0.0726374 0.0596547 -0.0297433 -0.0105972 0.0775469 -0.0351815 0.0514044 0.0242447 0.0309923 0.0731032 0.045945 0.032673 0.0286377 0.0587814 0.0280803 0.0231738 -0.0304245 -0.0244315 -0.0107138 -0.0891031 0.0647983 0.203688 0.0241201 0.018281 0.0311604 -0.000591674 0.00515032 0.0240116 -0.0711495 -0.023384 -0.0443333 0.011446 -0.0203968 -0.0126021 0.000256791 -0.0471308 0.0302177 0.0513449 -0.00989613 0.00806935 0.0356262 -0.081058 0.0333411 0.0414412 0.0219376 -0.0237432 0.0326994 0.0299042 0.080561 -0.0475254 0.00691826 0.0559903 -0.0488251 -0.0592669 -0.029158 0.130729 0.0258419 -0.0854044 0.0991536 -0.408934 0.0442099 0.0735655 -0.0370732 -0.00697756 0.00788729 -0.0386312 0.0271397 -0.015322 -0.0510844 -0.0180653 -0.0116928 0.0186119 0.037244 0.00877416 0.0135447 -0.0224834 -0.0585133 0.0149144 0.127638 0.0238526 0.0942374 0.00265169 0.0891268 -0.00887221 0.000891515 -4.62989e-05 -0.000708988 0.0417024 0.032081 -0.0254686 -0.0538298 0.00258659 -0.0366386 -0.0927781 -0.0144774 -0.00945333 0.319613 -0.0581182 0.0776244 -0.0112614 0.104181 0.0115869 -0.0238608 0.0340216 -0.0128984 -0.0443271 0.0135577 0.00901854 0.0213069 -0.0245764 0.022786 0.0224622 0.0580044 -0.0516364 0.0237637 0.076719 0.011445 -0.0145519 -0.0566146 0.008451 0.0461173 0.0371465 0.0113106 0.0923055 -0.0467358 -0.0281763 0.0551202 -0.0117282 0.00139964 -0.0747826 0.000650389 0.025379 0.0338835 0.0239372 -0.0813207 -0.0303802 0.0999477
include -0.0468245 0.0143872 -0.0161993 0.0637569 0.000576207 0.0150796 0.0473697 0.0133051 -0.0135882 0.0310219 0.00208677 0.0085108 0.0318901 -0.0401683 0.0220156 -0.0109329 0.0529062 0.00715425 0.0441968 0.048212 0.0387352 0.0173378 -0.0455819 0.0010227 0.0375844 0.00697975 -0.0137429 0.0470171 -0.0135788 0.0218752 -0.0334059 0.0584008 0.0319015 -0.0100113 0.00034313 -0.0317343 -0.0372365 0.00793008 0.0112605 0.00121741 -0.0236339 -0.0592241 -1.22888e-05 0.00756934 0.0315731 0.0807804 -0.0876805 0.0224598 -0.0250391 0.0131495 0.0639024 -0.0244257 0.0285455 0.0592083 -0.000316095 -0.0257218 -0.0275763 -0.00500058 -0.0439748 -0.0215077 0.00234838 -0.0121231 -0.00673807 -0.00389895 0.00892575 0.0411693 -0.0205793 -0.00857866 -0.0132809 0.0191518 -0.0366403 -0.0490885 0.0221927 0.00646376 -0.0395569 0.0177944 -0.0231064 -0.0292488 0.0168 -0.0020581 0.0285198 0.0647767 -0.00209565 -0.00517808 0.00265574 -0.0201905 0.0148523 0.00064202 -0.0198965 -0.0133064 0.0323294 0.0224861 0.00966007 0.015293 0.00297156 0.061616 0.0202372 -0.0173662 0.0230895 0.00165789 0.063201 0.0616438 0.0330247 0.00315958 -0.00892779 -0.0134981 0.0617489 -0.00451189 -0.0383978 -0.0308343 6.28093e-06 -0.049055 0.00400082 0.0977793 -0.0518016 0.0169372 -0.0148093 0.00493121 0.0680876 0.00944802 0.0137053 -0.0400023 -0.0319777 0.0048426 0.00782235 0.0555006 0.0407202 0.00929714 0.031191 -0.0196488 0.0198981 0.00968806 0.0126346 0.0831039 0.0531134 0.013204 0.0169429 -0.0108589 -0.0638291 0.0926736 -0.0363632 -0.0229138 -0.00769018 -0.0191354 0.0399716 0.00426448 -0.00267363 0.0400434 0.034077 0.00285168 -0.0116474 0.0370771 0.0151156 0.00373033 -0.041009 -0.0206873 -0.00806662 -0.0657292 -0.0248824 0.0413355 -0.0916263 -0.0364009 0.016621 -0.057361 -0.00156218 0.0020783 0.00572356 -0.00220269 -0.0217433 0.0800806 0.00818501 -0.00894951 0.0166636 -0.0262468 -0.0188309 0.0124731 -0.0234957 0.0181894 -0.0346904 0.0016822 0.0293072 -0.00584905 -0.0144728 0.00838955 0.37041 0.0248748 -0.00210466 0.0260366 0.0120151 0.00314251 0.0125767 0.0294124 0.0220424 -0.00243072 -0.0115359 -0.0336296 0.000261614 0.0175428 0.00670817 -0.0553921 0.0174765 0.023722 0.0108835 -0.00195514 -0.0387374 0.0514052 -0.0216954 0.0179016 0.0622634 0.0601265 0.0120493 0.0469295 0.00629622 -0.0635775 -0.00589288 -0.00188837 0.00464174 0.0582465 0.151489 0.0289904 0.0365539 0.029733 -0.471976 -0.0484961 -0.0309186 -0.0146067 0.0621622 0.0214811 0.0593706 -0.0194298 0.0485517 -0.00289469 0.0489587 -0.00920375 0.0365713 -0.0666307 -0.0488696 0.0295938 -0.0057136 0.0780298 0.0670618 0.419125 -0.0212006 0.00851762 -0.0056116 0.0440936 -0.0199477 0.0329805 0.0110506 -0.0405674 0.0282769 0.0434067 0.0254398 -0.00384379 -0.0140932 -0.0676944 -0.0163576 0.0238255 0.00419894 0.31741 -0.0284335 0.0333994 0.0422604 0.0154311 -0.00505478 0.0120957 0.0323047 -0.00824167 -0.0408579 0.057241 -0.0327273 0.0297407 -0.0450789 0.00962088 0.0730676 -0.0446758 -0.0482363 0.00018242 -0.0274172 0.00190804 0.0237803 -0.0120725 -0.0689221 -0.0215295 0.0515425 0.0276859 -0.0261416 0.0395793 0.018737 0.0327058 0.0489529 0.0260897 0.0250519 -0.00837562 0.030621 -0.010585 -0.0515367 0.0316948 -0.0607319 0.0170731
worth -0.0180647 -0.0117158 -0.0483125 0.00734442 0.0462531 0.0604724 0.018526 -0.019992 -0.0016595 0.0452311 0.0489112 -0.00453619 0.0653577 -0.0182446 0.0214498 0.00647925 -0.00441411 -0.0389671 -0.0834182 -0.0370874 0.000243491 0.0922667 -0.0748585 -0.00619306 -0.00687925 -0.0453457 -0.0203328 0.0420368 0.014113 0.0569572 -0.0407411 0.0449812 -0.0417934 0.0731539 -0.0131839 -0.0606125 0.0125514 0.141464 -0.0259551 0.0141682 0.0874535 0.0271123 0.0234493 0.0595911 0.0252505 0.0509276 -0.0372314 0.0425998 -0.0331097 -0.0136179 0.0191618 0.0138164 0.0141452 0.027468 0.029805 0.0388724 0.0373611 0.0294548 -0.0504329 0.0425571 0.0127906 0.062865 0.0899386 -0.0231267 0.0912519 -0.0310655 0.088009 0.037354 -0.000910234 0.0314989 -0.061837 -0.0253802 0.00760328 0.00336564 0.0599582 -0.0054045 0.0203338 0.0552417 0.0259572 -0.0142358 -0.00931955 -0.0280847 0.0371691 -0.0240414 0.0922457 -0.028751 0.0124244 0.0747014 0.0284557 0.0269811 0.05537 0.0110698 0.0121092 -0.0575087 -0.0292225 -0.0404484 -0.0178428 -0.0114516 -0.070945 0.0250536 0.0483911 0.0798391 0.0167377 -0.0203759 -0.0498095 0.00377694 0.011738 0.0681603 0.0415694 0.115262 0.059052 -0.0182089 -0.00186396 -0.045539 0.0235765 0.0375104 -0.033302 0.0373474 -0.00192362 0.0608172 0.00936843 0.103547 0.089531 -0.000509189 0.0499385 0.00987157 -0.0234468 0.0407387 0.0810317 -0.0709761 -0.0141447 0.0212793 0.018049 0.074097 0.0269735 -0.0401758 -0.0631811 -0.077432 0.0437059 -0.0453493 0.0145516 0.0420723 0.0367457 0.0133575 0.0375604 0.105839 -0.00160378 -0.010017 0.0162069 0.0268679 -0.0183265 -0.0413283 -0.011021 -0.0491433 0.0733443 -0.0197838 -0.0434551 0.0355469 -0.00990902 -0.0454594 0.0332543 0.0191495 0.0260764 0.0205526 0.0619294 0.0279187 0.0163265 -0.0227907 -0.0598518 0.019887 -0.0484898 -0.0215306 -0.0249771 0.0474562 0.0309217 0.031233 0.0116207 0.00436812 -0.0242646 -0.0354835 -0.0817212 -0.0777304 0.0565162 -0.089665 0.225429 0.0667489 -0.0262332 0.0331412 -0.0385531 -0.00147172 -0.0213235 -0.00890944 -0.0694139 0.0160097 -0.00281795 0.00053639 -0.0640078 0.117517 -0.0252524 -0.0676228 0.135665 0.0444227 -0.00470333 -0.0287793 0.0103199 0.0579312 0.025163 -0.00928512 0.0165198 0.0455775 0.0137415 0.0653234 0.0116865 -0.00236895 -0.0725487 0.0401772 0.00345644 -0.049545 -0.0133568 -0.0673248 -0.0339902 -0.0417587 -0.337462 -0.0845978 0.0534716 -0.0686717 0.0912432 0.0765864 0.0367602 -0.0160708 -0.0311703 0.0224604 0.00754205 -0.0187237 0.0172218 0.043194 0.0223915 0.0671878 0.0483759 -0.0976993 0.0130283 0.28474 -0.0503295 0.0174148 -0.0267301 -0.0102775 -0.0238942 0.00351755 -0.00857396 0.0251772 -0.000389218 -0.00944228 -0.0243753 0.0303984 -0.0424484 -0.0137062 0.0692177 -0.0117596 -0.0488555 0.390435 -0.0176421 0.0332679 -0.041338 -0.0675953 -0.0910791 0.00597545 0.0145089 0.0196851 0.0799668 -0.0109818 0.0187797 0.018373 0.00747727 0.0646242 0.0314604 -0.0129818 0.0567554 0.0236416 -0.000849394 0.0455027 0.00298733 0.0478876 0.0850172 -0.0370309 -0.0287007 0.00868447 0.0384879 -0.00213715 0.0160824 0.0269664 -0.0262124 -0.040132 -0.0682453 0.0189245 0.0654656 -0.00468954 -0.0561669 -0.0413618 0.0533086 -0.0343671
started -0.000596835 -0.0781042 -0.0114234 0.0656629 0.0424342 -0.00480464 0.0177528 -0.0633131 0.0315383 -0.0387973 -0.00243591 0.0244272 0.012652 -0.0407593 -0.0249525 0.0274641 -0.00112636 -0.0198545 -0.0350417 -0.00468266 0.0216864 0.045531 0.0089538 0.060878 -0.00804712 0.0118647 0.0334652 -0.0301992 0.0243558 -0.00356255 -0.00983294 0.0160025 0.000310417 0.0212804 0.00834944 -0.0232537 -0.0647144 -0.0129641 0.0538941 -0.0381991 0.0433207 0.0375915 0.0112836 -0.029923 0.00763063 -0.0222309 0.0388336 0.0521006 -0.00136265 0.0543692 -0.0681392 0.0153249 -0.0376718 0.052388 -0.0186185 -0.0458427 -0.0230455 0.0136093 0.0412035 0.00486954 0.027784 -0.0322478 -0.039856 -0.0367215 -0.000251344 -0.0323664 -0.000615295 0.0335026 0.0521071 0.0717716 -0.00587747 0.0254986 -0.00576458 -0.0616328 -0.011465 -0.00457772 0.0249572 -0.00718133 0.0664533 -0.0314734 -0.000931818 -0.00247538 -0.0310262 0.0383545 0.0463269 0.0350253 0.0802079 0.0598185 -0.0391263 -0.0108402 -0.0190568 -0.0243355 -0.00434853 -0.0176794 -0.0373309 0.0161689 0.0403137 -0.00905363 -0.0291857 0.0160593 -0.0376213 0.0244609 0.065955 -0.0693901 -0.011906 0.0185154 0.0429841 0.0233439 -0.025153 0.0325901 -0.0173882 0.0116839 0.0255522 -0.0180135 0.0514234 0.0179594 0.0216154 -0.0243528 -0.0280674 0.0547425 0.0372114 0.0174072 -0.00700809 -0.00326804 -0.00685828 0.0279139 -0.0144298 -0.0045986 0.0137302 -0.0184089 -0.0400031 -0.0452199 -0.00218002 -0.04631 -0.0424115 -0.0422167 0.0473261 -0.0493298 -0.00780699 0.00474557 -0.0209554 0.0250921 -0.0384031 0.0822234 0.0441462 0.00449849 -0.00876579 -0.0767292 -0.0519627 -0.00422258 -0.0572279 -0.0481282 -0.0671429 -0.0237359 0.0534455 0.00916269 -0.0368209 -0.0467663 0.0239041 -0.0668967 -0.0139425 -0.0234028 0.0113576 -0.0198958 -0.00536825 0.0102154 -0.0203542 -0.105691 0.0355471 -0.0214196 -0.0120249 0.0633634 -0.0381009 0.0168679 0.0386795 -0.0161138 0.0358314 -0.00332427 0.0229403 0.0318943 0.0556198 0.0612082 0.014624 -0.034705 0.192004 0.00833368 0.0153394 0.0558966 0.0269125 0.00216468 0.0205457 0.0258788 0.00698892 -0.0139668 -0.0572455 0.0266318 -0.0321689 -0.0357664 0.0417403 0.0372426 -0.0298092 -0.04342 0.0100421 -0.0639065 -0.0131566 -0.0694501 0.0514904 0.0162993 0.000794076 0.00455273 -0.0200508 0.0372834 0.0303 0.0200765 -0.00588968 0.0642604 -0.0293503 -0.0413985 0.0852639 0.0823123 0.0265273 0.0119675 -0.449865 -0.0208151 0.0747982 -0.0789792 -0.0137109 -0.0114522 0.013783 0.0650601 0.0209587 0.00593058 -0.0215037 -0.0156121 -0.00932855 0.0526726 0.0429234 0.00547319 0.0588294 0.00616176 0.0318809 0.393671 0.00582393 -0.0437389 -0.00967006 -0.00331277 0.00970755 0.0392182 -0.0215965 0.0375253 -0.0213776 -0.0245817 0.0118153 0.0347366 0.0250385 -0.00801517 0.0205342 -0.00950875 -0.0071934 0.458809 -0.0178453 -0.0394422 -0.0614392 -0.0124219 0.0691309 -0.0130574 0.0145416 -0.0585459 -0.00876224 -0.0110769 0.00355815 -0.00455926 -0.000371904 0.0458468 -0.0142452 0.0258897 0.0592819 -0.00935127 -0.15994 0.0167607 -0.0169397 0.0162543 0.00915559 -0.0370695 -0.0349207 -0.0268519 -0.00520452 0.0207433 -0.0749337 -0.00632534 -0.0304247 -0.0238659 -0.00998076 0.0237156 -0.0726885 -0.00277543 0.00862578 -0.0334946 -0.0205586 -0.0336098
applied 0.12897 0.072016 0.0129061 -0.041843 -0.0450358 0.0548917 -0.0225563 0.0047319 0.000183487 -0.00640841 -0.00450262 0.0365176 0.0900631 -0.0563322 -0.0486327 0.00872368 0.00313823 0.127105 0.057046 -0.0269932 0.0101172 0.0419881 0.0646724 0.022478 -0.0664129 -0.0197583 -0.0166876 -0.0850706 0.029881 0.016376 0.0678288 0.0634856 -0.0243864 -0.00565322 -0.0156102 -0.0148563 0.0427706 0.00811192 -0.00919805 0.103993 0.001373 0.0597227 -0.0518385 -0.0197804 0.0431808 -0.0931547 -0.0369559 -0.0173565 0.0609921 -0.0060344 -0.0495003 0.0872531 -0.0475535 -0.0230746 0.0561023 -0.00352172 -0.0103891 0.0290932 -0.036601 0.00925907 -0.0290372 -0.00574826 0.00018119 -0.0322544 0.00667159 0.000547303 -0.033108 -0.0924351 -0.012045 -0.0671013 -0.05166 -0.0511179 -0.0846746 -0.021523 -0.0621993 0.0326158 -0.00196911 0.0386867 0.00960307 0.0343372 -0.025933 -0.0262576 -0.0430649 0.0718595 0.019095 0.00814623 0.0240492 0.00713648 0.054152 -0.0228142 -0.0589911 0.072833 -0.0157131 0.0603129 0.0688429 0.0378169 0.117209 -0.0114207 0.00688709 -0.00500642 0.0131548 -0.0151437 0.00197256 -0.0676547 -0.0534812 0.0495416 -0.0131465 -0.0238094 -0.0361049 -0.00169417 0.0862775 -0.0100892 -0.0320783 -0.0338968 -0.0156965 -0.0386594 -0.0308292 0.0724207 -0.0304915 -0.0330237 -0.0590793 -0.0228726 0.0156491 -0.0194865 0.00518818 0.0336581 -0.0185108 -0.0164346 -0.023759 -0.0439008 -0.000669484 0.0208539 -0.0188979 0.0200307 -0.0619109 0.0438026 -0.0526229 0.0139822 -0.0165265 0.0345681 -0.0683029 0.0296263 0.00147235 0.0393016 -0.0131109 0.0165054 0.00979661 0.042453 -0.00921629 0.0199332 0.0114209 0.0167515 -0.0226934 -0.0390073 0.0199833 0.00901686 0.0760143 0.0571365 -0.0742044 0.00458417 -0.0101485 -0.0021572 -0.00826296 -0.0631855 -0.00384347 0.00482235 -0.0115812 -0.020984 0.0979189 -0.0116151 -0.0512162 -0.0252397 -0.0376732 0.0503835 0.0306075 -0.00319997 -0.0642325 -0.0683942 0.00604934 -0.0292892 -0.0240143 -0.0713671 -0.0134843 0.0335664 0.292226 0.00314742 0.0301067 0.0136553 0.0770522 0.0205982 -0.0650699 0.0251897 -0.0580573 -0.0464781 0.0171737 0.0150112 0.0048047 -0.044738 0.0272721 0.0169055 -0.060186 0.0511026 -0.0401494 -0.0846763 0.0466323 0.00517325 0.0154867 0.0332161 0.0335569 0.00672485 -0.0232057 0.0160003 0.00959776 -0.0172307 0.0291471 -0.0580026 0.0568996 0.00403658 0.0477564 0.032797 0.0386918 -0.0281047 -0.272654 0.0603173 0.00998239 -0.0591633 0.0902041 -0.00476708 0.036971 0.0658313 0.0428751 0.0284513 0.0812258 -0.0240116 0.00414986 0.00957393 0.0268932 0.0327371 0.0168599 0.0851635 -0.00815915 0.462202 0.047376 -0.0089567 0.0445221 0.0497263 -0.0419231 -0.0701978 -0.0551053 -0.032941 0.0247607 0.072988 0.00917537 0.0353608 0.0986307 -0.0179635 -0.0311397 0.0758849 0.0391213 0.298518 0.0179991 0.0465862 0.0074453 0.0206722 0.0054001 0.0423492 -0.00178534 0.0313162 0.00622794 -0.0284332 -0.0126411 -0.0320856 -0.0182369 -0.00822189 0.0727392 -0.0515651 -0.0130491 0.0122748 0.0245737 -0.0622125 -0.00886582 -0.0304638 -0.0182616 -0.0382147 -0.0133883 -0.0189494 0.0176749 0.0519041 -0.0202755 -0.0172057 0.0470612 -0.0316032 0.0644366 -0.00556607 -0.0582042 0.0614863 -0.00742176 0.0236363 -0.00361476 -0.0742147
fax -0.0555412 0.0243014 -0.0644352 0.0466262 0.0593464 -0.0415823 -0.118397 -0.022909 0.0278229 -0.0511526 0.0228088 -0.0712153 -0.00747931 0.0543894 -0.0695708 0.0465219 0.0317941 0.0546684 0.0103363 0.018044 -0.00862072 -0.0220331 0.0380065 0.0324873 0.0926206 -0.0323576 -0.0637605 0.0535683 -0.0204192 -0.0180515 0.0320814 0.0601296 -0.0249781 0.0472668 -0.0693238 -0.0128488 0.0388244 0.0823845 -0.000941968 0.0631983 0.0198222 -0.0679634 0.0668765 0.0422747 -0.0388748 0.0285765 -0.0018728 -0.0224448 -0.0539636 0.0388679 0.00693652 -0.00472588 -0.028007 0.0256905 0.0584823 0.00340849 0.0561738 -0.0041626 0.0318193 0.0293756 0.0347462 0.0546188 0.041964 0.0218689 0.038346 -0.0222406 0.00275239 -0.0366114 -0.0374874 0.0903596 -0.0296605 0.0296627 -0.00754361 0.0892831 0.0684652 0.00625786 0.0145196 0.0258579 -0.0432962 -0.0380047 0.0200154 0.0717153 -0.0185581 -0.0333586 0.0109769 0.0272592 -0.0149568 -0.196654 0.0785842 -0.0611306 -0.0251667 -0.0280201 0.0562946 -0.0015844 -0.0567202 -0.0752962 -0.125505 -0.0352128 0.0860051 -0.102021 -0.0684153 0.0491757 -0.0632666 -0.0644104 -0.0250241 0.0948694 0.10413 0.050796 -0.0483913 0.0185937 0.0295798 0.0440888 -0.00606718 0.0540398 0.0647044 -0.118108 -0.100192 -0.0131858 0.047027 -0.0475623 0.088065 0.0142898 0.000524966 -0.0349388 0.0692099 -0.0259728 0.0106058 -0.00155916 0.00601431 -0.0428252 -0.0171207 0.0216204 -0.0194191 -0.0797902 0.146252 0.0459307 0.0861099 -0.0248342 -0.0168121 0.0736496 -0.109489 -0.0438025 -0.12738 0.0200424 -0.0184345 0.0593817 0.0572847 0.0471011 -0.00283778 0.0125228 -0.0302432 -0.0410331 -0.0624635 0.0768363 -0.0492878 0.0850768 -0.073779 -0.0231337 -0.034422 -0.055232 -0.0419222 -0.040991 0.00422705 0.0776792 -0.100039 -0.139025 0.0965721 -0.0128111 0.122772 -0.160351 -0.0153902 0.0436344 0.00927741 -0.0344171 0.0442121 0.0545447 0.0487268 0.00332473 -0.029882 0.0015844 0.0119068 0.0955088 -0.0590137 0.0358925 0.128041 -0.112354 0.0361539 0.0675817 -0.00247142 0.0255753 0.075572 -0.010772 0.0108003 0.0298454 0.0283578 -0.0677841 0.0552308 0.000815739 -0.0216317 -0.0380715 0.0397014 -0.0369507 0.0454779 -0.0569713 -0.0253264 -0.100828 -0.0167074 0.00451144 0.0357519 0.0548161 -0.047565 -0.0402369 0.0258014 0.0330862 0.0422236 -0.024976 0.132552 0.100536 -0.0491585 -0.0460257 -0.0601814 -0.0517756 -0.238087 -0.0762113 -0.0376157 0.0212811 -0.0404082 -0.009169 0.0712186 -0.055998 -0.0304811 0.0152359 0.0939255 0.0223121 -0.0177925 -0.0270021 -0.0712798 -0.0150032 -0.0263788 -0.00797562 0.0456698 0.13427 0.0109632 -0.0999576 -0.00918935 0.0236866 -0.0156704 -0.0939253 -0.0700871 -0.0668601 0.0144096 0.0213167 0.0188827 -0.018393 -0.0158869 0.108846 -0.0037104 -0.00964244 -0.0298186 0.0513905 0.105776 0.0221423 -0.0700494 0.129308 -0.0143728 0.0773612 -0.0426719 0.0595269 0.0205348 0.0187872 0.0619006 -0.0310842 0.0163449 0.0157411 -0.0267579 0.0962754 0.0329334 0.0267587 0.00860364 -0.0395578 0.0239549 -0.0493419 0.0772022 -0.0288691 0.0230204 -0.0913756 -0.00194274 -0.0632039 -0.0779679 -0.0529266 0.0112802 -0.0231773 -0.0682761 -0.0264568 0.0588359 0.0789979 0.0069983 -0.0198009 -0.0884982 -0.0298537
street 0.0234856 0.0499 -0.0681126 -0.000745941 -0.0217117 0.0861045 0.0300629 0.00164935 -0.0234563 -0.030999 0.0501544 0.0424824 -0.0486588 0.0242558 0.0144728 0.013082 0.0291727 -0.00403849 0.0597085 0.0602805 0.0421792 0.00440456 0.00655554 0.0214456 -0.0038474 0.0710494 -0.0672005 0.0285668 0.0066338 0.0987348 -0.0898261 -0.126148 0.0449036 -0.0593216 0.0332291 -0.00692845 -0.0228451 -0.027504 0.0199275 -0.055569 -0.0435656 0.0562644 0.0223259 0.0237693 0.0307074 -0.0230003 0.0282156 -0.0131176 -0.0054579 0.00439575 0.0395634 0.0667252 0.0298568 0.0358234 -0.0157428 0.00430705 0.0186201 0.0456546 0.0334593 0.0255218 -0.00109624 -0.00985818 -0.0628676 0.0749718 -0.0863701 -0.00560748 -0.0230989 -0.0731879 0.0304707 0.00790108 -0.0372447 -0.0119204 -0.0111263 -0.0162246 0.0271319 0.0206651 0.0302232 0.0029513 -0.00286363 -0.0334469 -0.0465382 -0.125892 -0.046236 0.0394788 -0.0230302 0.0125566 -0.0405638 -0.0447717 -0.0496309 -0.0234134 -0.0593528 -0.0798298 0.0281884 0.0519784 0.00372217 -0.0453954 -0.0377829 -0.0658143 0.0578507 -0.00622321 0.0118193 0.0352337 0.136431 -0.0493427 0.0288329 -0.0864499 -0.00553652 -0.0215036 0.0285895 -0.0259953 -0.0425808 0.0522092 -0.0725582 0.00899999 -0.0284763 -0.0289262 -0.0102692 0.00559763 -0.0384289 0.0327556 0.00353154 -0.0128099 0.0572383 0.0516949 -0.0144353 -0.00788021 -0.0249259 -0.00377817 0.00526913 0.00287871 -0.0255185 0.00288161 0.0148278 0.0743358 0.0986346 -0.00823793 0.0414201 0.0304964 0.0513124 -0.0098954 0.0195699 -0.0294178 0.0460486 0.0135844 -0.036819 -0.0712408 -0.0217561 -0.105846 0.0162925 0.0164391 0.0309493 0.0474953 -0.00560667 -0.010946 -0.024505 0.0230097 0.0324713 -0.0252194 0.0210575 -0.0711507 0.0276944 0.0487433 0.0207102 -0.0249559 -0.0181375 0.020811 -0.0573233 -0.0586893 -0.0956709 0.0579941 0.0572498 0.0324071 0.0381231 -0.0107103 0.0580091 0.0214815 -0.0440491 -0.0215439 0.0193769 -0.0865205 0.0411009 0.0969391 -0.0794134 0.0332002 0.132181 -0.0402615 -0.00711003 0.0289174 -0.0253222 -0.00250046 0.0202436 -0.0126576 -0.0168865 -0.0202078 -0.0161144 -0.0169762 0.0417453 0.0114646 -0.0533306 0.0140418 -0.0119153 -0.0727307 -0.0544544 0.0545626 0.0347818 -0.0134639 0.0146443 -0.0030669 -0.0370751 -0.0365084 0.0156484 0.00904266 -0.00694201 -0.076098 -0.0403383 -0.0513717 -0.0400888 0.0730771 0.104906 0.0217845 -0.0109931 -0.0545638 -0.459725 0.0137619 0.0393795 -0.00367462 0.066919 0.0227894 -0.00806643 0.0516515 0.138858 0.0108255 -0.0251762 0.0563862 0.0729621 0.0523109 0.0367298 0.0594093 0.0208711 -0.0129325 -0.00806562 0.27279 0.0300102 -0.0291065 0.029186 -0.0506673 -0.0303092 0.0214675 -0.00140109 -0.00213068 0.00229452 0.0265423 0.030357 -0.00606539 -0.070781 -0.0179582 0.0427279 -0.0271941 0.0126308 0.342635 0.0299626 -0.040486 -0.006205 -0.00763125 -0.102177 -0.0225619 -0.0236457 0.0646078 -0.0290203 0.0743572 0.0545609 0.0667275 -0.0337692 0.130587 -0.00596961 0.0217049 -0.04757 0.0809324 0.0607621 -0.0124003 -0.0147241 0.0305138 -0.0739532 -0.0650424 -0.0376231 0.0200636 0.0377817 -0.0403152 0.0102158 0.0221573 0.00687012 0.00500127 0.0241802 0.0351061 0.00514482 0.0370804 -0.068401 -0.0245135 0.0530886 0.0128597
